0
-10.84432272822476
0
0
0
0
-6.121373213447359
0
0
0
0
-12.300914670528652
0
-4.916988719689738
0
0
-13.838580988595076
0
0
0
0
0
-9.406129778434552
0
-8.682367911013595
0
0
0
0
-10.404783182684694
0
0
-9.250168835915714
0
0
0
-10.92630980057754
-10.860241520717674
0
-10.373220489018827
-4.464856206394268
0
0
-21.91835212819325
0
-11.759621735409594
-6.343306666191493
0
0
0
0
-13.28581347006294
0
0
0
0
0
0
0
-2.9190473103696113
-3.289456434124935
0
0
0
-10.031267737413105
0
0
0
0
0
0
0
-13.021413212773767
0
0
-13.182859705289328
0
-12.654472776341649
0
-8.962250465125358
0
0
0
-7.774349091402263
0
0
0
-2.561949246292337
-10.561687095028729
0
0
0
-10.32627648940477
0
0
0
0
0
-13.4544680186965
0
0
0
-5.582493242561634
-5.715205704252146
-4.351053430839432
0
0
-11.147943073384923
0
-17.37761389317247
0
0
0
0
-0.3209787491945343
0
-5.480841353061813
-8.425596638127743
0
0
0
0
0
0
0
0
0
0
0
-9.295343821299117
0
0
0
0
-13.420191339293126
0
-9.5653741443198
0
0
-7.988972681880368
-10.31518545517497
0
0
0
0
0
-9.722512635284547
0
0
-8.691624827909475
-2.448525704060329
0
0
-8.469688832283431
0
0
0
-13.79036627463724
0
0
-15.471210041304552
0
0
0
-13.267690982993509
0
-12.92144313786571
0
0
0
0
-11.037863024441664
0
0
0
0
0
0
-14.53874673835785
0
-13.860907481098586
0
-1.9732229147979217
0
0
-0.41529908481871763
0
0
0
-3.597008333612162
0
-9.145875861251831
0
0
0
0
-7.108606917655853
-11.081436501434503
0
0
-9.076417073285786
0
-17.88539035424448
0
0
0
0
0
0
-10.252354301054348
0
0
0
0
0
0
0
0
-5.640843937605392
0
-13.808433448213528
-4.321768140942062
0
0
0
0
0
0
0
0
0
0
-7.212769627519076
0
0
0
0
0
0
0
0
-13.299114928957053
0
0
-14.621895408454431
-10.151893448588872
-8.435124203825431
0
0
0
0
0
0
0
0
0
0
0
0
0
0
0
0
0
-9.526399873518507
0
-14.032566443876524
0
-18.92561783104147
-4.28178873396
0
0
0
-9.436125268415717
0
0
-7.433529451448272
-4.088608487937969
0
-10.855613229285522
0
0
0
0
0
0
0
0
-1.9843200586094014
0
0
-12.612171759523836
-10.793222439353459
0
0
0
0
0
-7.144057807784008
0
-13.917879337249635
-12.731873508409844
-13.817201036385569
0
0
0
0
0
0
0
0
0
-17.78150568081017
0
0
-10.162069959770852
0
0
0
-2.1198416734649204
0
0
0
0
-10.342657967048169
0
0
-2.6633991738339793
-7.294371154575945
0
-7.485377516538966
0
-3.8685578378124625
0
0
0
0
0
0
0
0
0
2.1830409052835646
0
0
1.8404654292270235
0
0
0
0
0
0
0
0
0
0
0
-9.423344494294374
0
0
0
0
0
0
0
0
0
0
0.21706315779127416
-14.876966772384938
0
0
0
0
0
0
-16.993476340818393
0
0
0
-2.4228024904036833
0
0
0
-13.863577071365956
0
0
0
0
-6.560838087995729
0
0
0
0
0
0
0
-4.321529831325355
0
0
-11.244643219204363
0
0
-13.858549285072332
0
0
0
0
0
-4.2337371362489336
0
-24.960063082294802
0
0
-8.571806053897223
0
0
0
0
0
-12.549170287654178
0
0
-7.6837579682939205
-6.652421373274869
0
0
0
0
0
0
0
0
0
0
-11.968362867089544
-10.547066099350088
-16.07864837910608
0
0
0
-8.942444934908275
0
0
-3.700998180096007
0
0
2.0454933609693597
0
-12.762249879540787
0
0
0
0
-7.64813797367726
-5.353812305445611
-8.895817209532852
0
0
0
0
-11.443664325993787
0
0
0
0
0
0
0
0
-11.282318123446705
0
-4.82202548960058
0
0
0
0
0
0
0
0
0
0
0
0
0
0
0
0
0
0
-10.973864300912595
0
0
0
0
0
0
0
0
0
0
0
0
0
0
-10.187466410812018
0
0
0
0.037650170780474494
-11.957803492605915
0
-10.825358629348639
0
0
-7.181337570544544
0
0
0
0
0
0
0
0
0
0
-8.053220144554256
-9.696386490434739
0
-6.469170025532972
0
-1.7856993775829242
0
-6.54078282429354
0
-11.213697425470158
0
-1.9267605099782175
-9.531089067787203
0
0
-8.602408523900278
0
0
0
0
0
0
0
0
0
0
0
0
0
0
0
-10.331507668872057
-3.73892831250213
0
0
0
-5.473576004945644
-10.702229518138706
0
0
0
-3.445200720345801
0
0
-14.961435482775013
0
-8.475043246219238
0
0
-8.548467639182563
0
0
0
0
0
-7.562097768506415
0
0
0
0
0
0
0
0
0
0
-9.708937257880232
-1.9846326926788431
0
0
-9.013056982044647
-5.7740280640543675
-0.5556829006763954
-9.803207375379356
0
0
0
0
0
0
0
0
-11.290186872999554
0
0
0
-11.358610422340929
-15.042115120025452
-2.4002272757128917
0
0
-2.9697378016207656
-4.281632976274233
0
0
0
0
0
-6.539175386909013
0
0
0
-10.607048655938224
0
0
0
-8.8640352261635
0
0
0
-8.131211565500749
0
0
-5.984104523432606
0
-8.268088982694286
0
0
0
0
0
0
0
0
0
0
0
-10.67474154263429
0
0
-3.8940769054537805
0
0
0
0
0
-8.495908914103293
-2.869289579742442
-1.5050061857919896
0
0
-8.32069945077007
0
0
0
0
0
-12.918859899833283
-16.542881027395524
-2.6442269059561765
-4.631443881626526
0
0
0
-10.213033753189833
0
0
-8.836156724454561
0
0
0
0
0
0
0
0
-4.575757327820879
0
-7.711241867097259
-9.209604833163459
0
1.253979111919028
0
0
-4.5099789230825245
0
0
0
0
0
0
0
0
0
0
-10.656680684834196
0
0
-3.0136219133141267
-5.400702157826209
0
0
0
0
0
0
-10.389828461491161
-3.564893258752628
-0.5481172883718957
0
0
0
0
-11.756867217010042
-15.096707851149612
0
0
0
0
0
0
0
0
0
0
0
0
0
0
-7.434404100047309
0
0
0
0
-11.978698403802401
0
0
0
0
0
0
-15.158149638291338
-6.6494444142960525
0
0
0
0
0
0
0
0
0
0
-9.404761342917478
0
-9.822009080611709
0
-2.0152774527654107
0
-16.200630596059455
0
0
0
0
0
0
0
0
0
0
0
0
0
0
0
0
0
0
-1.8135902694570485
-2.619216419632583
0
-10.227317549912062
0
0
0
0
-6.580883117949139
0
0
0
0
-6.677015824154784
0
-9.033775472397295
0
0
-10.276401299339694
0
0
0
0
0
0
0
0
-7.804403440998829
-9.717988424888878
0
0
0
0
-2.3060972564353706
0
0
0
-2.4245667216790574
-8.500179539981973
3.77097401416919
0
0
0
0
-15.63122513493286
-11.032941410162287
0
0
0
0
0
0
0
0
0
0
0
-0.40366486770541815
0
0
0
0
-11.326974725994537
-9.18452500710678
-5.348528092243738
0
0
0
0
0.2776735876850951
0
-8.380642319824597
0
0
0
0
0
-7.171849031396883
0
0
0
0
0
0
0
-6.9165785302680165
0
-3.5692824554331573
0
0
0
0
0
0
0
0
0
0
0
0
0
0
-2.0440658341807434
0
0
0
0
0
0
0
-5.465947214123208
0
0
-6.388000341628381
0
0
0
0
0
-10.132164579298076
0
0
-0.41338450025221635
0
0
0.7848883269939659
-2.4963676620126836
0
0
0
0
0
0
0
0
0
0
0
0
0
0
0
0
0
0
0
0
0
0
-10.886152596064456
0
0
0
0
0
0
0
0
0
0
0.7746311283895871
0
0
0
0
0
0
0
0
-2.089266431370148
0
0
0
0
-1.1500937093192365
-7.573876865113111
-2.75907655723282
0
0
0
-3.7752345833637015
-0.035439571163917785
0
0
0
0
-12.077474546428967
0
0
0
0
-8.317310413404115
0
0
0
0
0
0
0
0
0
0
-8.682852215818716
0
-4.748243370727664
0
0
0
0
0
0
0
-9.54066096310821
-7.789206933464107
0
0
0
0
0
0
0
0
0
0
0
-8.178072795415959
-13.774372009741393
0
-10.490099453137976
0
0
0
0
0
0
0
0
0
0
0
0
-1.825072369893227
0
-4.660753015646656
0
0
0
0
0
0
0
0
0
0
0
-9.91133277564873
0
0
0
0
0
0
-3.9449234435853024
0
-10.075096959125483
0
0
-9.511976511736371
-10.54205210676254
0
0
0
0
-4.092531084193103
0
0
0
-2.6821558975487787
0
0
0
0
0
0
0
0
0
1.9589501532933604
0
0
-9.155952057386743
0
-5.308575442014834
0
0
0
0
0
0
0
0
0
-9.780406612416856
0
0
0
0
0
-2.1475591833069037
-3.7993920428363417
0
0
0
0
-4.165147392992744
0
0
-10.507438944298547
0
0
0
-5.012042270251355
0
0
0
0
0
0
0
0
0
-8.873470575403722
0
0
0
-5.706624393019664
0
0
0
0
0
0
0
0
0
0
-8.468541126029516
0
0
-11.518270005551962
0
0
0
0
0
-9.079748734931872
0
0
0
0
0
0
0
-6.345900687397761
0
0
-7.91074792058955
-11.734955370867732
0
0
0
-9.142351854433976
0
0
0
0
0
-8.962705725670919
0
0
0
0
0
0
0
0
0
-10.412937668207185
0
-11.04186942256721
0
-4.104265369193113
0
-9.166109725239584
0
0
-17.042765544592175
0
-13.582510095020956
-9.417362315347084
0
0
-6.5626902180347395
0
0
-4.053860040357414
0
0
0
0
0
0
0
-3.3764972264557693
-5.3316828932496225
0
0
0
0
0
0.8392341800068291
0
-1.2815800704302829
-4.332045513741041
0
0
0
0
-10.986940784324323
-2.0130011591373327
0
0
0
0
0
0
-13.60634535664996
0
0
0
0
0
-6.616342691984666
0
0
0
0
0
-10.918564579466624
0
0
0
-7.938588196806773
0
0
0
0
0
0
-6.42506144486017
0
0
0
0
0
-10.117231318332042
0
0
0
0
0
0
0
0
0
0
0
0
0
0
0
0
0
0
0
0
0
0
0
0
0
-9.079597835102419
0
0
0
0
-12.816508206017872
0
1.7040408223962193
0
0
-8.17156796554051
0
0
-15.146353542372948
-5.755415343383913
0
0
0
0
0
0
0
0
-13.546084154487689
0
0
0
0
0
0
-14.202169337085357
0
0
0
0
0
2.9873415171973767
0
0
-9.302708736583796
0
-11.169804499289285
0
0
0
0
-7.033432609859593
0
0
-15.19382917442198
1.539860949566501
0
0
0
0
-8.146572581121633
-4.191507964357639
-4.4296430089361545
-10.684216240871201
0
0
-0.8850317476211698
0
-14.252360380487662
0
0
0
0
0
-11.07472968319639
-3.7017637204481226
0
0
0
0
0
0
0
0
0
-1.7409595257438664
0
-4.712382087997786
0
6.274396536306431
-8.79344866265435
0
-3.765939145591884
0
0
0
-15.186142863353844
-7.561437902462552
0
0
0
0
0
0
0
0
0
0
-7.64812858775632
0
0
0
0
0
0
0
0
-2.4799222869550084
0
0
-9.167143564598177
0
0
0
-9.323424708340807
-0.20551531692618094
0
0
0
0
-6.056896133913709
-9.728194538159304
0
0
0
0
0
0
-10.861473490364299
-7.678980185350359
0
-13.617858289910657
0
-7.471773506778053
0
-1.887266578682641
-16.487723312727457
0
0
0
0
0
-19.863310069156114
0
0
0
-0.030567287067060668
0
0
-5.248571319382879
0
-5.019896318505905
0
0
0
0
-15.247568270737506
-5.66616588111578
-9.722220161528185
-2.4745177138002794
0
0
0
0
0
-7.5624346691415
1.5466496768936757
-1.806278433279725
0
-8.13213626526904
-7.816440996165581
0
-11.148403945489637
-2.6914269909785484
0
0
0
0
0
0
0
0
0
0
0
-11.300531944237601
0
0
-5.740451413845862
0
0
-12.04883266103489
0
0
0
0
-9.048560413884099
0
-5.137073768355861
0
0
0
0
0
0
0
0
0
0
-6.9145235217541625
0
0
0
0
0
0
0
-5.222896364141206
0
0
-12.347761326565534
-10.809994193572637
0
0
0
0
-2.7147763688946616
-8.707828181809836
0
0
-13.459457497039319
-8.983143629009376
0
0
0
-10.97835278802923
0
-8.433967942661594
-17.618705386615105
0
-10.323567590943785
0
0
0
0
-6.923660613192701
0
0
0
0
0
0
0
0
-7.754481862334457
0
0
0
0
0
0
0
0
-1.0974597620217323
-9.749863816942774
0
0
0
0
0
0
0
-7.358948646841824
0
0
0
0
-12.075678175235712
0
0
-5.48262223649411
0
0
-6.295727570795182
-11.773079943841218
0
0
-13.285664232643613
0
0
-12.287494483903489
0
0
0
-3.975745078615222
-18.657431118597117
0
0
-10.96809750610736
-9.02607510874719
0
0
0
0
0
-10.47734086514056
-9.851222666995982
0
0
0.03103745489784224
0
0
0
0
0
-1.891540751000788
0
-0.6721399120043625
0
0
-10.809912676333955
0
-6.237357879440465
0
0
0
0
-7.69148994524379
0
0
0
0
0
0
0
-0.9838275742543997
0
0
0
-4.150241475080153
0
-3.9299027412878504
0
0
1.1122013325711977
0
0
-12.019549438798613
0
0
-2.1049327806725326
-9.294994245842485
0
0
-11.131842967195674
0
0
0
0
-15.434035394288273
0
-4.1655372144312866
0
0
-4.47087937005488
0
-8.981490259573887
0
-6.595205201296229
-6.56204753198813
0
0
0
0
0
0
-13.584713744977007
0
-10.533121862442558
0
0
0
0
0
0
0
0
0
0
-6.80606615574302
0
0
-2.102352203081525
0
0
-10.853779929283302
0
0
-11.691226034818706
3.1686137113050066
0
0
-3.380139707249604
-3.0147795756906737
0
0
-4.768839144400254
0
0
0
0
0
-12.459218846559338
0
0
0
0
-10.983753143283026
-5.600984550673046
0
-3.8135197105503837
0
0
0
0
-3.3903354893252424
0
0
-5.188613479483801
-5.602482668136475
0
-14.92868268821883
-11.691618517343267
0
-4.175974311210937
0
0
0
0
0
0
0
-14.256210465831877
0
0
0
0
-11.625049204053605
0
-9.312489606290486
-15.936350463580206
-1.9537677617861395
0
0
0
0
-13.147019914362224
0
-11.088578704310393
0
0
-12.047056246657123
0
0
0
0
-2.804531262727776
-11.188165376080669
0
0
-7.06722278072736
0
0
0
-15.158655237338822
0
0
-10.583855623181154
-14.226107352164917
0
0
-13.012622719350768
-12.658801993894306
0
0
0
0
0
-9.257864176265755
0
-11.680258924868511
-5.9760861555509095
0
0
0
0
0
0
0
0
0
0
0
5.54620889171714
-2.593610573782122
-2.0212487181885317
0
0
0
-6.682673782268395
0
0
0
0
0
0
0
0
0
0
0
0
-13.269009549361925
-6.635415811252156
-9.763558149290693
0
-2.616675932232014
-9.513389303852067
0
0
0
0
0
0
-8.55813320841552
-1.3635770153467135
0
0
0
-8.739254380923914
0
0
0
0
0
-0.2173134666255752
0
0
-1.8062239520424765
0
0
0
0
-7.680546371859783
0
0
0
0
0
-8.781064268405109
-19.146024768154913
-4.004125664222641
0
0
0
0
0
0
0
0
0.7219546477134267
0
0
0
0
-2.941857297525935
0
0
0
0
0
0
0
0
0
0
0
-17.72976484042431
0
0
2.7887529530499804
0
0
0
-10.537266072660737
-8.731160600873828
0
-0.14361049005374021
0
-15.162647055270359
0
-2.449927775296545
0
0
0
-9.441840605225451
-9.213192473283463
0
0
0
0
-12.71974210139739
0
-3.8679207088002343
-10.983044227513995
-0.998408870415207
0
0
-11.77081920673583
0
0
0
0
-12.828012101133941
0
0
0
0
0
0
0.035233974587594176
0
-0.5884714708247664
0
-1.882893452724698
0
0.2451801816894342
0
0
0
0
0
0
-0.8498945420744504
0
0
0
0
0
0
0
0
0
0
-0.3839095814233956
-11.847863050728288
0
0
0
0
-3.983886126473636
0
0
-4.474072801697793
0
-11.92309216043105
-6.5203511084524886
0
-4.081554595577833
0
0
0
0
0
-14.047634819889787
0
0
0
0
-5.2180574994062
0
0
-9.554285137536747
0
0
0
1.0871916193109177
0
-8.951494354732727
-9.524140924657218
-8.080902570913054
-9.965351205578692
0
0
0
0
-8.822413006573319
0
-10.264407504237182
0
0
0
0
0
0
0
0
0
0
0
0
0
0
-15.297722280908934
-15.482794451625793
0
0
-6.466634551672164
0
0
0
-12.930173321265794
-10.812841254275176
-0.6980902625058311
0
0
-9.471068941237665
0
-8.685071741368466
0
-2.882435556793029
6.878699587367502
0
0
0
0
0
0
0
0
0
0
0
-6.499803046924727
-3.554370142545947
-13.451530540370255
-12.099024460259352
0
0
-7.022665901768249
0
0
0
0
0
0
0
0
0
0
-0.8306334412098315
0
-6.709130779188739
0
-0.9556888663174574
0
0
0
0
0
0
0
0
0
0
-9.655949657873697
0
0
0
0
0
0
0
0
0
0
0
0
-0.2800953782063554
0
-3.7056676920347433
0
0
0
0
0
0
0
0
-8.520895441325672
0
-2.513429236608757
0
0
0
-12.572132210931427
0
-3.741818335990343
0
0
0
0
-9.451133167664148
-4.203869150924273
0
0
0
0
0
0
0
-14.457611387665374
0
0
0
0
0
0
0
-13.155213194052441
0
0
0
0
0
-7.3126854609596394
-7.602904603506664
0
0
0
-7.629590865195512
0
0
0
0
-8.779493320659073
0
0
-11.19587761357714
0
0
-11.872933753697408
0
0
-4.331530887306242
0
0
0
0
-8.415205532174875
0
0
0
-21.079649573502966
0
0
0
0
0
0
-0.6921885489514759
0
0
0
-2.6291300570573832
0
0
0
0
0
-7.359312311636643
0
0
0
0
0
0
0
0
-8.986753823122887
0
0
-3.6443668134749405
0
-0.020227645540533384
0
0
-12.067399636907457
0
-3.290032128146094
-3.2263183545122445
0
0
-5.233572057658536
0
0
-11.86513354140499
0
0
0
0
0
0
-8.865822920553441
0
-2.418024880088394
0
0
0
7.311936480999341
-9.736156941366813
0
0
0
0
0
0
0
0
0.08157268148845322
-12.606966959249792
-6.312998971926101
0
0
0
0
0
0
0
0
1.8284855050114144
0
0
0
0
0
0
0
0
0
0
0
0
-12.70297711802759
0
-8.796000767826637
0
0
-4.931760693276963
0
0
0
-3.4653411917891632
0
0
0
0
0
0
0
0
0
-6.363545445431398
0
0
0
0
0
0
0
0
0
0
-4.694549780724113
-8.325431773261224
-16.049904533766377
-8.740008109858302
0
0
0
0
0
0
0
-15.27493784219452
0
0
0
0
0
-3.319784307825764
0
0
0
0
0
0
0
0
0
0
0
0
0
0
-6.3089160951940775
-14.92545211761737
0
0
0
0
-11.123206457322935
0
0
0
0
0
0
0
0
-4.077193164579406
0
0
0
0
-15.801282036635081
0
0
-5.205249519681927
0
-0.6110144177901857
0
2.0386351625194563
-2.8295513391588774
0
0
0
-0.3595081372536089
0
0
0
0
0
-3.0717274497223266
0
0
0
0
-12.20590777449304
-14.619806502789862
-6.06223398962987
-10.537032627713957
0
0
0
0
0
0
0
-14.46202763345306
-6.151535120861369
0
0
0
-12.934367848235778
0
0
0
-8.126065998552242
0
0
0
-10.314333043630999
0
0
0
0
-10.534577944633947
-12.591137039834196
0
0
0
0
0
-3.1460961340830758
0
0
0
0
-4.094224894954616
0
0
0
0
0
0
0
0
0
0
0
0
0
0
0
0
0
0
0
0
0
0
0
-3.6493689088838623
0
0
0
0
0
-9.909461542978415
0
0
-2.610089443076367
0
0
0
0
0
-2.91809150022696
-8.934475041063104
-9.193240619793755
0
-5.963499140713148
-13.096604439014484
0
0
0
0
0
0
0
0
0
0
0
3.3855414974820084
0
-13.366802047534316
-14.498021943353724
0
0
-4.687789537386797
0
0
-2.702811594194919
0
0
0
-9.04583728389471
0
-4.64773597601724
0
0
-7.218416376458314
0
0
0
0
0
0
0
0
0
0
0
0
0
0
0
0
0
0
0
0
0
-12.147906635750637
-9.354566520193831
0
0
0
0
0
0
-10.232458847195486
0
0
0
0
0
0
0
0
-2.191913072180724
0.4674247955006724
0
0
-10.898650172394941
-8.198073969872938
0
0
0
0
0
-5.795074404087394
-3.039422323791525
0
0
0
0
-12.685080505849886
0
-5.553760195872758
-2.7180969516047058
0
0
0
0
0
0
0
-0.9500128728818421
0
0
0
0
0
0
0
0
0
0
0
0
0
0
0
-16.176215315194558
-2.1325036252955574
0
0
0
-0.48357798619307873
0
0
0
-2.274961866853865
0
0
0
1.6808032660787942
0
0
0
0
0
0
0
0
0
-8.850471853887834
0
0
-4.225501750805424
-1.823526830548846
-14.16874683628869
0
0
0
0
0
0
0
0
0
0
0
0
3.2871317170124743
-12.137934622606709
-14.182397695985701
0.95115705328931
-3.2189361866164807
0
0
0
0
0
0
-6.021497566602531
0
-10.875709539095297
-6.921880917061952
-7.053103082854118
0
-6.919131645064582
0
0
0
-9.159258069720206
0
-3.9212827469473126
0
-10.144875256911899
0
0
-7.690240815553296
0
-7.041809164944351
0
-8.202145365126439
3.0168753721233212
0
0
0
0
0
0
0
0
-11.204734052771384
0
0
0
0
-7.167484963102509
1.2854578813689612
-4.812832456203809
-1.241174899580585
0
-4.68281676352548
0
0
0
0
0
0
-8.8599166460498
0
0
-7.92182701522627
0
0
0
0
0
-2.249508326370982
0
0
0
-5.301499127780978
0
0
0
0
0
0
0
0
-8.589237508234588
0
-10.814078700269429
0
0
-10.013257094695593
0
0
0
0
0
0
0
0
0
0
0
0
0
-2.890080954426718
0
0
-3.7955909611064316
-6.555683673376974
0
0
-14.927439279377639
-13.214154174160823
0
0
-6.736785504108425
0
-1.792690002534898
0
0
0
0
0
0
0
0
0
0
-1.4207384066905262
-5.129891716965574
0
0
0
-10.711072268557706
0
0
0
0
0
0
0
0
0
-5.2038702324558015
0
0
0
0
0
0
-13.791681579949701
0
0
0
0
0
0
0
0
0
-1.4253524522072756
0
0
0
-9.466273073617756
0
0
-11.301081428769
-7.225841407489543
0
0
0
0
-15.025528129515445
1.1184060563025784
-10.324310010961668
0
0
0
0
0
0
0
0
0
0
0
-2.703136393493749
0
0
0
0
-7.973430556142138
-11.139287818032551
0
0
0
0
0
-0.06924296520832304
0
0
0
0
0
0
-9.155349176196403
0
0
-10.524669555113416
0
-13.674110562495882
0
0
-8.170728914075104
0
0
0
0
0
0
0
0
0
0
0
-2.390738767135153
0
0
0
0
-11.396949599918164
0
0
-5.690619989640711
0
0
0
0
-2.70987290407349
0
0
0
0
-2.4133579628089814
0
0
0
0
-1.9011106236678228
-7.992746979127603
0
0
0
-9.527633018190686
0
0
0
-4.712805743544602
0
-6.823689772858415
0
0
0
0
0
0
0
0
0
0
0
-1.084696379602144
0
0
0
0
-4.241766246401758
-3.4942515198134148
0
0
0
0
0
0
0
0
0
0
0
0
0
0
-9.268114829435037
0
0
-12.278740322236
0
0
-11.087119738874536
0
0
-0.6544982052775672
0
0
0
-4.8801241702319205
0
0
0
0
0
-1.8064937208027634
0
-9.414220023074524
0
0
0
0
0
0
0
0
0
-8.831599006606483
0
0
0
0
0
0
0
0
0
-12.478935429193058
0
0
0
0
0
-9.230805370461171
0
0
-11.731253988789732
0
0
-8.166525163382257
0.06411453568531632
0
-5.022131134834442
0
0
0
0
0
0
0
0
0
0
0
0
0
0
0
0
0
-10.296235227466687
-3.066006151727134
0
0
0
0
-0.9649659803518776
0
-12.124818924392523
0
0
0
0
0
0
0
-24.062328895204978
0
0
0
0
0
0
0
0
0
0
0
-10.26764049437258
0
-5.327739710083116
-8.7252902251845
0
-2.0989779443529737
0
0
0
-8.77045212813918
-10.137475869883376
-8.150402418773185
0
0
0
0
0
0
-20.886052444507452
0
-25.21998804351249
0
0
0
0
0
0
-7.983931218688815
0
0
0
-3.6187886935525415
0
0
0
-9.177611016279728
0
0
-0.0828446748286874
0
0
0
0
-2.0123193791906284
0
0
0
0
-6.199935891947564
0
-0.9552805803534321
0
0
0
-1.1147785653894944
0
-11.779203866095408
-8.239829893899396
0
-9.599288363936509
0
0
0
0
0
0
-14.427119322449345
0
0
0
-10.60287114121242
0
0
-8.943831149922797
0
0
-11.1265675279409
0
-5.638520263989701
-9.130854390142357
-7.348125728693101
0
0
0
-8.770299483452144
0
-13.165919871862135
0
0
-6.140598177182767
0
0
0
-5.798946035645211
0
0
0
0
0
-11.977991791081827
0
-7.526758978233875
-10.203965718724984
-15.595345781184319
-1.351602561598247
0
0.5178700350511047
0
0
0
0
0
-10.034343920041712
0
0
0
0
0
0
0
0
0
0
-2.5512143355221344
0
0
0
0
-4.327179112507753
0
0
0
0
0
-6.274867811422464
0
0
0
-11.011472345239628
0
-8.073298979069804
-10.935974740537576
-12.451324201768164
0
0
0
-10.10612685298641
0.583021392326903
0
0
0
0
0
0
0
0
0
0
0
-11.173487533192972
0
0
-8.976951575974892
0
0
-9.874564907875403
0
0
-11.255303736748587
-9.717394978160218
0
0
0
0
0
0
0
0
0
-13.059366438863751
0
-5.105230354399833
0
0
0
-8.693732446998304
0
0
-9.968259082508887
0
0
-5.464760072809991
0
0
-5.700104198074
0
0
0
0
-15.32334303903303
0
0
0
0
-10.20311783856216
0
0
0
0
0
0
0
0
-2.215326815933672
0
0
-5.184243775260388
-12.965595444535984
-5.812938336941145
0
-19.69294342773743
0
0
0
0
0
0
0
-7.52747520909905
-4.821158391248101
0
0
0
-13.44243707232498
0
0
-2.8055655527175576
0
0
-4.694631964733102
-12.090635096814422
0
1.3049368361155147
0
0
0
-6.181112895152488
0
0
0
0
-8.011162680947127
0
0
0
0
0
0
0
-5.783505247708807
0
0
0
0
0
0.10296178777375715
0
0
-1.841481879849508
0
0
0
0
0
0
0
0
0
0
-9.606871846703758
0
0
0
-3.8041635234580715
0
-8.536665088295187
0
0
-10.038374369752258
0
-1.9962095254057177
0
0
0
0
0
-5.506147320592902
-10.031730977865884
0
0
0
0
-8.953768314413143
0
0
0
-9.506079647101574
0
0
0
0
0
-12.30921071373874
-7.992743762784663
0
0
0
-0.07070502665486558
0
-2.1349546711314003
-12.926316860192403
0
0
0
-17.415313976675137
-9.848321134579407
0
0
-1.4585690260816118
-5.693366189402854
0
0
0
-0.06896480417139968
0
0
0
-11.682235864709986
0
-7.272900216605372
0
-12.590200688913256
0
0
1.084015529815285
0
-10.316345866018896
0
-8.895142381687275
-8.639385185668853
0
0
-9.431570064326856
0
-9.045094393929187
0
0
-0.041764241209192185
0
0
0
0
0
0
0
0
0
0
-2.6812390360640896
0
0
0
0
0
-13.568714818885791
-10.683479489562046
0
-11.219113404541382
0
0
0
0
0
0
0.5940367596603527
0
-13.772843935580303
-4.99490503120356
0
-3.1478396387755687
0
0
-0.23593606676976608
0
0
0
0
0
0
-16.864305269735056
0
0
-8.585430162174351
0
0
0
0
-15.530088447457803
-13.27787019188007
-7.761417046838171
0
0
-2.5169155009528263
0
0
0
0
0
0
0
0
-2.821428317823846
0
0
0
0
0
0
0
0
0
0
0
0
-7.83118715815604
0
0
-9.397362401860747
0
-11.49351193216327
-2.4673855408618475
0
0
-8.630891561185646
-15.052326598404118
0
-11.113349766285362
0
0
0
-4.829403927297652
0
0
-1.7528498788590112
-2.0019263409592
0
0
-3.286680510608624
-7.1609112184012504
0
0
0
0
0
0
-10.727097680471111
-1.600519531185048
0
0
0
0
0
0
-5.494805872928005
0
0
-3.482900898017432
-8.191407564858853
0
-4.2468803185440525
-11.264284694999485
0
0
0
0
0
-5.703166636808861
-11.521184675790822
0
0
0
0
0
0
-10.558494519996989
-7.624969447284202
0
0
-12.96818762174278
-0.7772933174859553
0
-6.064106791305735
0
0
0
-3.355981998898738
-15.226383706354568
0
3.7765430389903507
0
0
0
0
0
0
0
0
0
0
-9.060769657473363
0
0
0
0
0
-10.14924210863788
0
0
-9.969520854033268
0
0
0
0
0
0
0
0
0
0
0
0
0
1.1398527443839241
-11.648695772313763
0
-1.5011705699559397
0
0
0
0
0
0
-12.712436060579337
0
0
0
0
0
0
0
-5.848770496987487
0
0
0
0
-11.071886651954417
0
0
-5.262516554903108
0
0
0
0
-2.1018804067964596
-2.917933367394238
0
0
0
0
0
0
-2.9736643726997642
0
0
0
0
0
0
0
0
0
0
0
-4.381805736492009
-10.419498566499707
0
0
-0.4682625657476496
0
0
0
-7.582828735551367
0
0
-1.8403273167793934
0
0
0
0
0
0
0
0
0
0
0
0
0
-0.08750305857359515
0
0
0
0
0
2.5365002563885195
0
-10.860606889458884
0.9961460625760249
0
-3.748514062795507
0
0
0
0
0
-15.154628108516874
0
0
0
-14.339988905421967
0
0
0
0
0
-0.5915844597815526
0
-0.3344717415162976
0
0
0
0
-4.055155171023923
0
0
0
0
0
0
0
0
-2.9700487907616675
-8.00150599283707
-0.6696382917041291
0
0
0
0
0
0
0
0
0
0
0
0
0
-14.487943185639917
0
-0.5444461233545608
-5.27947685289915
-6.867808480262152
0
-9.414042010955725
-10.716552189961641
0
0
0
0
0
-0.13354258283291656
0
0
0
-0.7088383037733176
0.015742117965866987
0
0
0
0
0
0
-1.0161747739402138
-7.977893001454054
0
-12.625464504644604
-1.3210506378937878
0
0
0
0
-7.774655898919037
0
0
0
0
0
-4.472643939169306
0
0
-16.41774088511733
0
0
0
0
0
0
0
0
0
-9.106697078326233
0
0
0
-9.923130150011662
-11.241910365974974
-7.243378157006204
0
-18.56000639365164
-1.7769436481329934
0
0
0
0
0
0
0
-13.4927046589102
0
0
0
0
0
0
0
0
0
0
0
0
0
-10.6295216011078
0
0
0
-1.0341377882376668
0
0
0
0
0
-0.6523290893246869
0
0
-6.811287257300583
0
0
0
0
0
0
0
0
0
0
0
0
-8.502427627861977
-14.380667836607591
0
0
0
0
0
-9.310345750912235
-7.742429494669227
0
0
0
0
0
0
0
0
0
0
0
0
0
0
0
0
0
0
-3.3783149421484726
0
-10.450143778746174
0
-10.190918620721474
0
0
0.6468249541584639
0
0
0
0
0
0
-14.28390867868542
0
0
0
0
-2.6649858148542993
0
0
-10.2920699933779
0
0
0
0
-7.6796308065307075
0
0
-3.285865066081624
0
0
0
0
0
0
0
0
-9.001381610021834
0
-5.2054371014484735
0
-10.940862021901106
0.2012883912150846
0
-8.92087530097462
0
0
0
0
0
0
0
-10.946296413453648
0
0
0
0
0
0
-2.5255503475785632
0
-14.484452059736313
0
0
0
0
0
0
-10.402597952552277
4.558711557686697
0
1.4968867226443705
-1.7569074104725253
0
0
0
0
0
0
-8.111693284412029
0
0
0
-8.472404187104953
0
-7.016601504619568
-9.7318002389197
0.7732745594788923
0
-5.898086914615348
0
0
0
0
0
0
-11.496209762346927
0
0
0
0
0
0
-1.7275080274448371
0
0
-9.788516230278429
0
1.4968867226443705
-3.62315997830733
-12.190203949722253
0
-2.108014242741523
0
0
0
0
0
0
0
0
0
0
0
0
0
-3.3856454753186727
-10.327717873546952
-11.609155507982134
-10.662921733507755
0
0
0
0
0
0
0
0
0
0
0
0
0
0
0
-5.025291392243784
0
-1.2955570266157794
0
0
0
0
-9.965667774788205
0
-0.6600614200072957
0
0
0
-11.094018306615956
0
-9.840024753328168
0
0
0
0
0
0
0
0
0
0
0
-7.551411174874401
0
0
0
0
0
-5.0157810183920395
0
0
0
0
0
0
0
0
0
0
-3.6106801027858393
-5.468247973160427
0
0
0
0
-0.8099883168108136
0
0
-6.503509427171642
0
0
-7.9899767029334745
0
0
0
0
0
0
0
0.8089806697292325
0
0
0
0
0
0
0
0
0
0
0
0
0
0
0
0
-17.34770043598364
0
-0.7829975706113637
0
-15.209021580270639
0
0
0
0
0
0
0
0
0
0
0
-10.868832986198464
0
0
0
0
0
0
-9.453762334786065
0
0
-6.904277567543329
0
0
0
0
0
0
-7.350449531697823
-12.688144870293048
0
0
0
0
0
0
-10.099137142958055
0
0
-4.090671390178412
-9.431127707304501
-0.6171486573749073
0
-9.782310295094614
0.15001904354136242
0
-0.42135848636296
0
-3.6986547360165525
0
0
0
0
-10.549650425192333
0
0
0
0
0
0
-3.097872631312549
0
0
0
0
0
0
0
0
0
0
0
0
0
0
0
0
-12.327367978716023
0
0
0
-3.1775683366253173
0
-13.522977844891674
0
0
0
0
0
0
0
0
0
0
0
0
0
0
0
0
0
0
0.5095204450866597
0
0
0
0
0
0
0
0
-10.62593872163381
0
0
0
0
0
0
0
0
0
-11.713660298592393
0
0
-1.3857818413741876
0
0
0
0
0
0
0
0
0
0
1.4968867226443705
0
0
-14.730941265778728
0
0
0
0
-8.847214655712502
0
0
0
0
0
0
0
-6.763219497443816
0
0
-2.7707737055598782
0
-11.757888884327174
0
0
-9.398500307889611
0
-9.125765589247955
0
0
-8.317212775940945
-1.407468829831663
0
0
-13.605968547974866
0
0
0
0
0
-6.721759359542687
0
0
0
0
0
0
-6.154176456805165
0
-6.696971821622426
0
0
0
0
0
0
0
0
0
0
0
0
0
-12.865330167024508
0
-10.403035832119091
0
0
0
0
0
0
0
0
-1.0151666362852336
0
0
0
0
0
-6.205745358598062
0
-2.0479376198284434
-11.513492941605758
-7.233848307852483
0
0
0
-6.403562123410012
0
-13.402848142704359
-4.296342834876725
0
0
-7.467807949788195
-5.936559950701947
-11.299498594462715
0
-11.26278066895288
-5.937477257210198
0
-16.747865307293143
0
0
0
0
0
0
-11.176905624855495
0
0
0
0
0
0
0
0
0
0
0
0
0
-9.8903592760734
0
-3.773340250902063
0
0
0
0
0
0
0
-9.221885217262423
0
0
0
3.047948432033869
0
0
0
0
-6.803898483354964
-10.927919401771645
0
0
8.339759084395952
-0.44247591091515687
-0.2086024080485007
-13.9699299577217
-6.606941109154127
-5.545364149354132
0
0
0
-2.290573844573497
-9.466661712870662
0
0
0
0
0
0
0
0
0
0
0
-9.537929646181727
-9.386792769092416
0
0
0
-14.694144311138889
0
0
-1.937016267762137
0
-0.42242748102392724
0
-8.97470315023724
0
-9.60660635004111
0
0
0
0
0
-2.338985084012903
0
0
-3.134153521198036
-4.592606670055362
0
0
0
0
-7.802537307206424
0
0
0
0
0
0
0
-7.625561307816566
0
0
0
0
0
0
-7.822121359911359
7.961870073704989
-3.2405796869102086
-1.5797316707746865
0
-1.2242230765543431
0
0
0
0
-8.553377260184153
0
-8.369754040073701
0
0
-0.10586311287250526
0
0
0
2.891153454565692
-5.431629281534496
0
0
0
0
0
0
0
-9.98466544874758
0
0
0
-7.843742092892065
0
0
0
0
-11.27031134321227
-8.574759422498682
0
0
-0.012069935632305986
0
0
0
0
0
0
-4.061236293415867
0
0
0
0
0
-3.105762486941278
0
0
0
0
0
-2.8748325962923653
-13.327022519724142
0
0
0
0
0
0
0
-1.9102906301291502
0
0
0
0
0
0
0
0
-7.918049471719437
0
0
0
0
0
0
0
0
0
0
0
-10.432679547819562
0
-10.20697702779553
0
0
0
-12.037242566086109
0
0
0
0
0
0
0
0
0
0
0
0
-5.437419583498089
0
0
-11.660727867502594
-12.737879150448864
0
0
-10.208058571164925
-6.0676871901885345
0
-8.894404667329477
-11.797362173162949
0
0
-6.517878233997349
0
-8.081086707878487
0
-10.766701460144446
-7.471831224538611
0
0
0
0
0
0
0
0
0
0
0
0
-9.224919116045221
-6.358721669142594
0
0
0
0
0
-0.3650294460882179
0
-3.1697848997166695
0
0
7.305279903635404
0
-9.96583284163379
-11.0202282855417
0
-9.893490503000507
0
0
-9.20567297895917
0
0
0
-1.3493834563381062
0
0
0
0
0
0
0
0
0
0
0
0
0
0
0
0
0
0
0
0
0
0
0
0
0
0
0
0
0
0
0
-12.618515081336087
-3.3296314771031024
-6.3153837120511
0
0
0
-6.657841741518155
-1.1296996994894413
0
1.0836906852846346
0
-9.292948686419113
-1.9101783042563634
0
-6.931816549493437
0
0
0
0
-1.9686205533377539
0
0
0
0
0
0
0
0
-7.632114044190241
0
0
0
0
-9.460172067603574
0
0
0
0
0
0
0
0
0
-4.309995839530177
-8.302619586185845
-7.428381493994275
-0.5479258503361407
0
-2.7933808506604327
0
0
-9.636443420115294
0
-3.3736615679404363
-12.393118186042985
-16.954466346599485
0
0
-8.35060384130254
0
0
0
0
0
0
-5.820819501893765
0
0
0
0
0
0
0
0
1.9627271508930544
0
0
0
0
0
0
0
0
0
0
0
0
0
0
0
0
0
0
0
0
0
0
0
0
0
0
0
0
-21.54833891173929
-11.73521227698774
0
0
0
-11.806665093913075
0
0
0
0
0
0
0
0
0
0
-11.908080382982753
-9.156943749728695
-7.712404725252895
0
-4.114441834397074
0
0
0
0
0
0
0
0
0
0
0
-3.464523826778338
0
-14.108083112847407
0
0
0
0
0
0
0
0
0
0
0
-4.875268094755343
-8.95862057769547
0
0
0
0
0
-14.0458951049242
-10.597618479200667
0
-7.521068164886406
-5.726748097323323
0
0
0
0
0
-2.06593817163454
0
0
0
0
0
0
0
-10.913212824125186
0
0
0
-0.38531578994846866
0
-10.826311708295018
0
-7.936521217902071
0
-8.696847774717494
-5.630677588613138
0
0
0
0
0
-3.374494961963767
0
0
-8.910068223270809
0
0
-1.5473755144552148
-11.01180169963345
0
0
-8.77587134674112
0
-14.292941300478594
0
0
0
0
0
0
0
0
0
0
0
0
0
-11.979727061941349
0
0
0
0
0
-10.92978567680981
0
-7.719051839936579
0
-10.289714506564286
0
0
0
0
0
-16.601999049483897
0
0
-0.8658654746070947
0
0
0
0
-2.8578779373635816
-8.604989306660304
0
0
0
2.176716700385813
0
-0.4249108364932051
-4.218464561100915
-14.830633713007122
0
-2.6097689827658566
0
0
0
0
0
0
0
0
0
0
0
0
0
0
0
0
0
0
0
0
0
0
0
0
0
0
0
0
-7.7987307268978086
0
0
0
0
0
-11.369339363536263
0
-12.758784490359602
-12.488184588236221
-13.290969229251042
0
0
-15.363496966560234
0
0
0
-7.792065076605363
0
-0.4550845633301631
0
0
0
-8.610197940635672
0
0
0
0
0
0
0
-14.634827766904547
0
0
0
0
0
0
0
0
0
0
0
0
0
0
0
0
0
0
0
0
0
0
0
0
0
0
0
0
0
0
0
0
0
0
0
0
0
0
0
0
0
0
-9.303971675078824
0
0
0
-2.4731511739643857
-11.64904487091994
0
0
-4.0154046694399055
0
0
0
0
0
0
0
0
0
0.3817143779685443
0
0.2012883912150846
-6.516225631190621
0
-5.290407618995424
0
0
0
0
0
0
0
0
0
0
-7.51945514895132
-7.001009706784144
0
0
0
0
-9.46534609766082
-10.202901495434586
-4.7194021693884425
0
0
0
0
0
0
0
0
-4.557681314645691
0
0
0
0
0
0
0
-8.778960584138645
0
0
0
-2.1593230191626365
0
0
0
-15.658281986204681
0
-15.355189674146756
0
0
0
0
0
0
0
0
0
0
-5.904644867447222
1.601343467515786
-7.8736015760089995
0
0
0
0
0
-14.427218490618097
0
0
0
0
0
0
0
0
0
0
0
0
0
-12.174208129632218
0
0
0
0
0
-8.284608832787118
0
-3.860677270532008
0
-17.62927291662969
0
0
0
0
0
-10.664421285710748
0
0
0
0
0
0
0
-10.978258717650123
0
0
-8.84777116363199
0
0
0
-13.795816992005568
-8.336839918019384
-9.62887167255247
0
0
-10.40321516723064
0
-8.049873173770468
-5.856503575777655
-4.887222245313939
-11.442094693884028
0
0
0
0
0
0
0
0
0
0
0
0
0
-6.9918314247411635
0
0
0
0
0
0
0
0
-5.342497676183153
-12.142733783812417
0
-16.148062766456956
0
0
-7.982585908606932
0
-12.601782518340839
0
0
0
0
-12.78177190305696
0
0
0
0
0
0
0
0
0
-2.191164675934668
0
0
0
0
0
0
0
-13.219494609560103
0
-14.997291447049244
0
0
0
0
0
0
0
0
0
0
0
0
0
0
0
-9.976274381000424
0
0
0
0
0
0
0
0
0
0
0
0.08835001482053871
0
-4.333901521084265
0
0
0
0
0
0
0
0
-10.020418639615949
0
0
0
0
0
0
-3.831363516759445
0
0
1.239156566686586
0
0
0
0
0
0
0
0
-12.548140509693201
-11.496050363401695
0
0
-4.726797224699965
0
0
0
0
0
0
0
0
0
0
0
0
-8.73108391674023
0
0
0
0
-8.43060099853743
0
0
0
0
0
0
-9.931987954154952
0
0
0
0
-9.535190266415247
0
-5.0682079059118506
0
0
0
-8.16840106305812
-14.380507434982357
0
0
0
0
0
0
0
0
0
0
0
0
0
0
0
0
0
0
0
0
0
-5.461524837443555
0
0
0
0
0
0
0
0
0
0
0
0
0
-8.772785611767928
-12.312347922262923
0
-5.78120710460453
0
0
0
0
0
0
0
0
0
0
0
-2.1478949996404855
0
0
-15.9421357182668
0
0
0
0
0
0
0
0
0
-14.955825708290424
0
0
-0.6380002925020944
0
0
0
-7.297885360771552
0
0
-19.147025500980646
0
0
-7.838623775140768
-11.900305398130165
0
-11.597717022317038
-12.614246174357154
-12.004593828798212
-2.609971178622987
-9.185377923628469
0
0
0
0
0
0
0
0
0
0
0
0
0
0
0
0
0
0
0
0
0
0
0
0
-11.410593284030423
0
-10.875258703411292
0
0
0
0
0
0
0
0
-14.010230394384067
0
0
0
0
0
0
0
0
0
0
0
0
0
0
-9.147035245403488
0
0
0
0
0
-10.123314434154372
0
0
0
0
0
0
-8.868240528250476
-4.14120815595752
0
0
0
0
0
0
0
0
0
0
0
0
0
-6.805604268368922
0
-16.872068231267075
0
0
0
0
0
-2.1488118389818447
0
0
0
-7.777133432527684
0
0
-10.755207384585644
0
-11.662199310975229
0
0
0
0
0
0
0
0
-10.434146438350444
0
0
0
0
0
0
0
0
0
-13.334446135697632
0
0
0
0
0
-5.6939202913586895
0
0
-5.563105840476404
0
0
-0.4474939080221109
0
0
0
0
0
0
0
0
0
-9.21315836548511
-0.45202115264850334
0
0
0
0
0
-12.18624763464652
0
0
0
0
0
0
-11.052252669218843
0
0
0
0
-11.501720651727611
-14.855328694099631
0
0
0
0
0
0
0
0
0
0
0
0
0
-16.71233012211895
0
0
0
-2.2348296077495062
0
0
0
0
0
0
0
0
0
0
0
0
0
0
0
-2.9841637828175784
-8.145544558789906
-15.618137263887581
0
-5.437022458815328
0
-10.68568837203443
-9.0667998821832
0
0
0
0
0
-12.044271589846115
-6.941544796057372
0
-10.7755352158767
0
0
0
0
0
0
0
0
0
0
-0.5433453463160361
0
0
0
0
0
0
0
-12.410734916678742
0
-10.1011636649529
0
0
-10.522689521727095
2.3701565179459183
0
0
0
0
0
-10.089345098066724
0
0
0
0
0
0
0
0
0
0
0
0
0
0
0
0
0
0
0
0
0
-11.540067101428232
0
0
0
0
-2.522341853226669
-4.9855655975115525
-10.60156876756401
0
0
0
0
0
0
0
0
-10.71947121326842
-2.5509585851393646
-8.659218610754323
0
0
0
0
0
0
0
0
-12.309247026685094
0
0
0
0
0
0
0
0
0
0
0
0
0
0
0
0
0
-11.602259059605267
0
0
0
-6.976904630159337
0
0
0
0
0
-7.0182659482044665
0
0
0
0
-8.872689857660076
0
-14.535741682263426
0
-8.638420465975925
0
0
-13.856222665399674
0
0
0
-9.430496851062331
-9.268812703377144
0
3.3832932763082404
-5.535014234242943
-10.077594687184545
0
0
-8.557195498526383
0
0
0
0
0
-10.607612886444747
0
0
0
0
0
0
0
0
-9.431792809643072
0
0
0
0
0
0
-4.997994050115794
0
0
0
0
0
0
0
0
0
-5.326991119250229
0
0
0
-0.05361781337513399
0
0
0
0
0
0
0
0
0
0
0
0
0
0
0
0
0
0
-2.056553337860676
-4.54676732700991
0
-11.562769320193611
0
0
0
0
0
0
-5.71748447780644
0
-7.647691978563902
0
0
0
0
-17.032061623058524
0
0
0
-6.762873305294643
0
0
-11.091666666939458
0
0
0
0
0
0
0
0
-9.861427864384737
0
0
0
0
0
0
0
-16.40235334025157
-0.15151258251086702
-7.788965276276503
-11.978543129895606
0
0
0
0
0
-12.06812780527376
-5.593951746944582
0
0
0
0
0
0
0
0
-3.7610548714058365
0
-8.996793114335496
0
-0.6349425225900899
0
0
0
0
0
0
0
-10.893493571047202
0
-11.103830766624768
0
0
0
0
0
0
-9.085603192684193
0
0
-13.140101842440153
0
0
0
0
0
0
-7.379348400464911
0
0
0
0
0
0
0
-11.824874979016233
0
0
0
1.6141988333901909
0
0
0
-6.4728937275759435
0
0
0
-19.01514623894526
0
-6.353409812637528
0
0
0
0
0
0
0
0.4735018125793304
-11.14365399538559
-5.186503143706311
-10.357021612300592
0
0
0
0
-2.7977375991542615
0
0
0
-12.828326913204132
-9.203186942678661
0
0
-4.8948295206303225
0
0
0
0
0
0
0
0
-18.883792645178556
0
0
0
0
-10.292074920439521
0
0
0
-8.831400690833155
0
0
0
0
0
-7.486571467655677
0
0
0
-3.682224826165057
0
0
-17.528673914109973
0
0
0
0
0
-16.477283963373083
0
0
0
-9.227848961451613
0
0
-0.7499533548998184
-17.99487882019556
0
0
0
-9.489718368535568
0
0
0
0
0
0
0
0
0
0
0
0
0
-15.83870725024027
0
0
0
0
0
0
0
0
0
0
0
0
0
-8.436861614803188
0
0
0
0
0
-10.82541720577218
0
0
0
0
0
0
-8.729045983767303
0
0
0
-15.730999557652245
0
0
0
0
0
0
0
0
0
0
0
0
0
0
-5.815326853292234
0
0
0
-4.1126631644801765
0
-5.865991427777717
0
0
0
0
0
0
0
0
-0.9023930457285795
0
-5.4664990377336125
0
0
0
0
0
0
-6.914051102859987
-1.8121784998104904
0
-6.962676372591057
0
0
0
-9.988677882313421
0
-0.27133156033631745
-1.2552284485981504
-8.513196319755094
0
0
0
-2.4381630809059898
0
0
0
0
0
-6.684996853169275
-4.567006644115136
0
0
-4.685902178777521
0
-16.5088256593758
0
0
0
0
-12.123146532828358
0
0
-10.242045720670378
0
0
0
0
0
0
0
0
-8.946177750240674
0
0
0
0
-9.253271699935837
0
-9.211164314620866
0
0
-1.7085009761550907
0
0
0
0
0
0
-4.945697265367281
0
0
0
0
0
0
-5.076184039297826
-10.32633484052175
0
-14.14928346834686
0
-2.3619323994058017
0
-12.744360607507687
0
-15.084530056407186
0
0
0
0
-9.645783492969057
0
0
0
0
0
0
0
0
0
0
-7.068187929501035
-8.840705005426742
1.043729291964503
0
0
0
-14.356546622609077
0
0
0
0
0
0
0
0
-11.276236861124168
0
0
0
0
0
0
0
-18.313914218573704
-2.2232854610342216
-9.876127698221815
0
0
0
0
0
0
0
0
0
0
0
0
-4.422361354799249
0
0
-5.909338672737688
-1.9149695822828556
0
0
-2.0041323334737853
0
0
0
0
0
-19.39957395503901
0
0
-5.257485445031776
-9.708039578790679
0
0
0
0
-10.529319686048133
0
0
0
0
-7.987855547863884
-14.118271785087497
0
0
-11.221030670720006
0
-12.91688822399956
0
-9.490155316775885
0
0
-1.5987881974933404
-9.57426753856749
0
0
0
0
-12.056842153546013
0
0
0
-1.7903859814797893
0
0
0
0
-8.929781226533041
0
-13.954089620656173
0
0
-2.670152030128077
0
0
0
0
-10.556535968976016
-11.7708296211209
0
-12.966244581590606
0
0
0
-13.043150904709217
0
0
0
0
0
0
-3.3847050793033246
0
0
0
0
0
0
0
-3.506641054455719
0
0
-6.467472089424364
0
0
0
0
0
0
0
0
-10.008531572264813
0
0
0
0
0
-11.822416227751702
0
0
1.8374668499603917
0
0
0
-7.885913065570401
0
0
0
0
-9.624053721607147
0
0
-10.532607041819745
-3.9396105901410317
-10.5840533966168
0
0
0
-4.070166277377656
0
-10.767012410678136
-8.451663357215017
0
0
-6.987185709414972
-7.314246072223031
0
0
0
0
0
0
0
0
0
0
0
0
-10.343380235799392
0
0
0
0
0
0
0
0
0
0
0
0
-13.54384026211478
-9.031911509314632
0
0
0
0
-9.881155568375046
0
-9.536583088795645
0
0
0
0
0
0
0
0
0
0
0
-5.132574791630073
0
0
0
0
-5.477399510967872
0
-5.197648007962503
0
-8.46479039103547
0
-8.861838229855785
0
0
-6.068425630882565
0
-3.9960970017035824
0
0
0
0
0
0
0
0
0
-3.512563079190696
0
0
0
0
-7.748631036118753
0
0
0
0
0
0
-8.195371331697158
0
-12.052153702263176
-14.056039680583103
0
0
0
0
0
0
0
-2.2136318108812914
-0.4051335235304995
0
0
0
0
0
0
0
0
-11.8575692212149
-8.8169273136496
0
-4.5203116341650995
-8.336623362952189
0
0
0
0
0
0
0
0
0
0
-3.1525207237957353
-11.35018580165454
0
0
0
-5.340298213413898
-10.576018613065681
0
0
0
0
-3.335527789159655
0
0
0
-4.453367631071204
-1.4307416674829687
0
-8.117262253184375
0
0
0
0
0
-14.982861913165605
0
0
-5.420316619480366
-10.422637648154648
0
-5.920361686652657
0
0
-11.547350325370036
0
0
0
-2.4088881683606895
0
0
0
0
-4.2053950301783685
0
-15.268434758554285
0
0
0
0
-10.03127961981514
0
0
0
-9.266073481288608
0
0
0
0
0
0
0
-12.693577029263674
-10.644648788838367
0
0
0
0
0
0
0
-13.8637293179788
0
0
0
0
0
-0.8651110513496947
0
0
0
0
0
0
0
-11.441794027584024
0
-11.961046596039356
0
0
0
-17.189473570319024
0
-8.782098469445968
-15.840765825566043
0
0
0
0
0
0
0
0
0
0
0
0
0
0
0
-10.02314354903201
-14.910632862523373
0
0
0
0
-0.4775506959204059
-20.243806207828147
0
0
0
0
0
-15.07597776850782
0
0
0
0
0
0
0
0
0
0
-11.86807090658149
0
0
0
0
0
0
0
0
0
0
0
-5.271936640870439
-14.183562417985144
-4.775287154329217
0
0
0
-9.847703791677779
-4.552186643503868
0
0
0
0
0
0
0
0
0
0
0
0
0
0
0
0
0
0
0
0
0
0
0
0
0
0
-10.217293504091746
0
0
0
0
0
0
-6.268209422036352
0
0
-9.52749521616222
0
0
0
0
0
0
0
0
0
0
0
-6.260661117633731
0
0
0
-8.891053857864492
0
-11.838170718955109
0
0
0
0
0
0
0
-8.810283038472916
0
0
0
0
0
0
0
0
0
0
-8.997925001137675
-0.2311242251751478
0
0
0
0
-5.584753927084509
0
-5.2372697608585534
0
0
-12.48651343827512
0
0
0
0
0
-18.729404395823778
0
0
0.4679825406787091
0
0
0
0
-1.4469736560636424
0
-0.21720118258897253
0
0
0
-12.519845152533877
-7.7088919961279405
0
0
0
0
0
0
0
0
-4.881736995287669
0
0
0
0
0
0
0
0
0
0
0
0
0
0
-3.2905247911239264
0
0
0
0
0
0
0
0
0
0
0
0
0
0
0
0
0
0
-11.442108468186255
0
0
0
0
0
0
-7.797565735505621
0
0
0
0
-9.480589665528097
0
0
1.5955311671146861
0
0
0
0
0
0
0
0
0
0
0
0
0
-13.682586299356695
-5.473525344386088
0
0
0
0
-8.100550467939684
-9.895402631594331
0
0
0
0
0
-4.354545075275915
0
0
0
0
-4.731794151466857
-0.540110913976764
-10.272297547948954
0
0
0
-10.39722822854298
0
0
0
0
0
0
0
0
0
0
0
0
0
0
-14.40810098267364
0
0
0
-12.846455627542973
-10.083889585859609
0
0
-11.73093612803577
0
0
0
0
0
0
0
0
0
-7.306413794040772
0
3.845857871247315
0
-23.21183456301092
0
0
0
0
0
0
0
0
0
0
0
0
-7.833258796327354
0
0
0
0
0
0
0
0
0
0
0
0
0
0
0
-12.922449078069059
0
0
0
-9.811515091654696
0
0
0
0
0
0
0
0
0
-14.424772533954547
0
0
0
0
0
0
0
-8.504020135515225
-7.436216242090806
0
-2.6012747829348566
-9.299639223255925
-8.623973585200606
-0.09922890534080873
-10.01738771742779
-2.1469664930328927
-11.334960276189534
0
0
0
0
0
0
0
0
0
0
0
0
0
-1.3615307273495443
0
0
0
0
0
-10.853089650684511
0
0
-5.0241840425816156
0
0.4720691382554724
0
0
0
0
-5.37240963568129
0
-4.619169737667445
0
0
-10.324669831024213
0
0
0
0
0
0
-0.475291409833963
0
-11.618312252344861
0
-15.431281771684466
0
0
0
0
0
0
0
0
-4.557160425623139
-0.9006135923491166
0
0
0
0
-0.0610316066350363
-10.48062390041348
0
0
0
0
0
0
0
0
0
-8.972269782022027
0
0
0
0
0
0
0
-4.577945189149475
-4.644971157320916
0
0
-0.337523483418395
0
0
0
0
0
0
0
0
0
0
0
0
-5.857988337812222
0
0
0
0
-6.899800660536747
0
0
0
0
0
0
0
0
0
0
0
0
-16.297593962917006
0
0
0
-7.902377748026111
-3.8632171670832793
0
0
0
0
0
0
-0.4431878176546057
0
0
-10.666942844296878
0
-2.5662474316139527
0
0
0
-15.497493665392268
-14.127303393985017
0
-13.447862467958437
0
0
0
0
0
0
0
0
0
0
0
0
0
0
-7.675743106715961
0
0
0
0
0
0
0
0
0
0
0
-12.362216083375772
0
0
0
0
0
0
0
0
0
0
-2.7939695903573543
-1.7315991984544592
0
0
0
0
0
0
0
0.6531022772939327
0
0
0
0
0
-13.49740313101577
-12.482789681899693
-6.5405400606506845
0
0
0
0
0
0
0
0
0
0
0
0
0
-9.4395210676006
-12.507961208599509
0
0
0
0
0
0
0
0
0
-12.780566893076088
0
-4.562995205972463
0
-1.1526725296226594
0
0
-6.566531849996684
0
0
-9.291658478284145
0
-8.713921701520336
-11.399607900893498
-6.733005805372572
0
-9.29580022941675
-8.87052156913095
-4.123948333030723
0
-9.136801598773136
-9.82697746682218
0
0
0
0
0
0
0
0
0
0
0
0
0
-3.5755319764239073
0
0
0
-3.206312202399217
0
-0.9118761636791757
0
0
0
0
0
0
0
0
0
0
0
-6.6980893017881025
0
0
-8.483652915612296
0
0
0
0
0
0
0
0
0
-9.532421112228446
3.2634325411864107
0
0
0
-7.177514332252873
0
0
0
-5.570171391677584
0
0
0
0
0
0
0
0
-5.507602707454665
-12.66256544927899
0
0
0
0
0
0
0
-8.293272890932855
0
0
0
0
0
-10.069743550433044
-6.514757395870869
-18.316555163788415
0
0
0
2.6187877575589686
0
-0.635278077676376
0
0
0
0
0
0
0
-9.51328863356953
0
0
0
0
0
0
0
-5.257283402800274
0
0
0
0
0
0
0
0
0
0
0
0
-17.49155271859587
0
0
0
0
0
0
0
-10.999861270482565
0
0
-1.6049176023234792
0
0
0
0
0
0
0
0
0
0
-1.7207435842977916
0
0
0
0
0
-4.399345649855335
0
0
0
0
0
0
-2.8438418439795985
0
0
0
-7.432157376682031
0
0
0
0
0
0
0
0
0
0
0
-10.733077159746076
0
0
0
0
0
0
0
0.4640666086611867
0
0
0
0
0
0
0
0
0
0
0
0
0
0
0
-3.6190024335025965
-2.077647852422269
0
0
-5.929764494876812
0
-8.527928196358598
-4.793687781855813
0
0
0
0
0
0
0
0
-13.849466173980575
0
0
-21.314814378319113
0
0
0
0
0
0
0
0
0
-9.4589965110159
0
0
0
0
0
-13.084273348785583
-8.650470852419442
0
0
-1.9875232202744375
-9.019733593549692
-5.594647563381759
-12.965692553999974
5.21458433823932
0
0
-9.117724481502714
0
0
-4.411373131667961
0
0
-9.308275584384715
0
0
0
0
0
0
0
0
0
0
0
0
0
0
0
0
-16.8231886116979
0
0
0
0
0
-5.781970681428731
0
0
0
0
0
0
0
0
0
-11.737743146487427
-4.096949753291471
0
0
0
0
0
0
0
0
0
0
0
0
0
-6.816688349947941
0
0
0
0
0
0
0
0
0
0
0
0
-5.213909735507003
-11.998915985474817
0
0
-8.772992980990509
0
0
0
0
0
0
0
0
0
0
-7.498103760390517
-8.858844495104433
-12.254917961521423
0
0
-5.6824993444347065
0
-2.855450560774753
0
0
0
0
0
-6.236215159861277
0
-8.435082790064177
-2.6476481946181716
-6.736831467759475
0
0
-10.65609428094395
0
0
0
0
0
0
0
0
0
0
0
0
0
1.8028749698234647
0
0
0
0
0
0
0
0
0
0
2.500091564571491
0
0
-6.33229359419941
0
0
0
-5.976645871251755
0
0
0
-0.06241118
0
0
3.3963599016215147
0
0
-9.070680457901462
0
0
-13.040268077491088
0
0
0
0
-11.035718391022753
0
-9.032049838638995
0
0
-2.5377812208905874
-3.1065623292250306
0
0
0
0
0
0
0
0
-5.197310620004651
-5.318115811851817
-11.147287435228579
0
0
1.5385858233427263
0
0
0
0
0
-6.3288499692441444
-17.359520925772724
0
-13.30357667066313
0
0
0
0
-3.763421419356536
0
0
0
0
0
0
0
-3.700208099128548
0
0
0
-10.987978734505715
2.7066372848450917
-7.741728966477289
0
0
-1.618270849859076
-3.1811037993059297
0
0
0
0
0
-15.53504150433624
0
0
0
0
0
0
-0.4811870310385495
0
-1.1283760426470295
0
0
0
0
0
0
0
0
0
-13.743517895497869
0
0
0
-9.63030882250153
-11.625017060781522
-7.802684318948437
0
0
0
0
0
0
0
0
0
0
0
0
0
0
0
0
0
0
0
0
0
0
0
0
0
0
0
-22.29437781284877
0
0
0
0
-11.449248513439386
-5.2838806329728705
0
0
-3.6438835905863063
0
0
0
0
0
-0.3483042921274227
-11.322385283870405
-8.8359277599389
0
-7.572364297806106
0
0
0
-9.490972622635304
0
0
0
0
-9.67146069426894
0
0
-3.972516323106847
0
0
0
0
0
0
0
0
-3.978750806517806
0
0
0
0
0
0
0
0
0
0
0
0
0
0
0
0
0
-13.34941272283263
-11.109123581853225
-11.50463169155197
0
0
0
-6.506090317325933
0
0
0
0
0
0
0
-11.194663425176316
0
-7.950781767476243
0
-9.467120242177062
0
0
-7.066759020751558
-8.343505654322994
0
0
0
0
0
0
0
0
-2.60754759095563
0
-5.164265229958951
0
0
-10.312992587030296
0
-6.482959076674989
0
0
0
0
-7.350733094218079
0
0
0
0
0
0
0
0
0
-7.981674075849274
0
0
-10.581354305654285
0
0
0
0
0
0
0
0
0
0
0
0
0
-9.612954573989176
0
0
0
0
0
-3.9119909262001875
3.8734576184564475
0
0
0
0
8.009351966138357
0
-8.048190763444035
-10.525342977624215
-0.39533416997275433
0
-11.54558873350524
0
0
0
-6.9931316716816605
0
0
0
0
-4.080748325838937
0
-12.536090122328277
-8.346896004696985
0
0
0
0
0
-12.037400048753527
0
0
0
0
0
0
-7.657930180181233
-7.943304364569148
-3.1942346439636364
0
-17.321664732726784
-2.5400674190726935
0
0
-0.46329320807324276
0
0
0
0
0
0
-11.07316682310643
0
0
-0.12357329322505016
0
-15.693703437256474
0
0
1.4362978460653426
0
3.7637173286109418
0
0
0
0
0
0
0
0
-13.686260181796465
0
0
0
0
0
0
0
-3.29732312064555
0
0
0
0
0
0
0
0
0
-9.590807322538096
0
-7.569658670745667
0
0
0
0
0
0
0
0
0
-12.285433252991464
0
0
0
0
-8.263592351574031
-10.254507582327724
0
0
-13.251687335294864
-9.7199163677169
0
0
0
0
0
0
-5.648942076570621
0
0
0.5565048917236239
-4.595200136230521
0
0
-5.060396232351775
0
0
0
-10.393055838128436
0
0
0
0
-12.422028018818734
0
0
-2.786341244774803
0
0
0
0
0
-0.9598548240293868
0
0
-0.3971481284351798
0
0
0
0
0
0
0
0
0
0
0
0
0
0
0
0
-7.691038968805805
-6.535891079471225
-21.099938742666637
0
-5.670747593687133
-0.9440225882164208
0
0
0
0
0
-6.8278577950435935
-9.443449502245981
0
-8.9645874214591
0
-11.915323935219984
0
0
0
-8.663601488068597
0
0
-12.452712078682048
0
0
-13.157013031998577
0
0
-9.426907754094376
0
-17.109507104285886
0
0
0
0
-0.2753371076111577
-15.190898495631947
0
0
0
0
0
0
0
0
0
0
0
0
0
0
0
0
0
0
-13.486483443461902
-12.10814030880826
0
0
0
-7.740832771395042
-9.953550594624783
0
-8.129711346422384
0
0
-1.277737399784879
-8.013063333985622
0
0
-5.850200547146245
0
0
0
-1.3526002366385375
-4.734906248440142
0
0.722179200800447
0
0
0
0
-14.636636861729732
0
0
-4.121102240355652
0
0
-5.287714979302402
0
0
0
0
0
-10.39270811486444
0
0
0
0
-6.65782413445454
0
0
0
-3.5849579660619115
0
0
-6.574862173838515
0
0
0
0
0
-6.577290087653321
-7.302279626732367
0
0
0
-7.789282503209643
0
-11.227873689919187
0
-13.370580936033953
0
-18.060032425011254
0
0
0
0
0
0
0
-10.9965542840244
0
-21.267620851900336
0
0
-3.9468735380752413
0
0
0
0
-15.818166433112133
0
0
-8.173023111787716
0
0
0
0
0
-8.524735740448774
0
0
0
0
-8.478179149681017
0
0
-15.788730166625733
0
0
