-9.838640870697972
-0.7019443668905938
8.924037742390935
2.617856271300622
-4.048861804572338
6.012194281053535
2.2018782774448598
-6.245321747783642
4.852731081789347
4.528372334589953
-1.8743170613034796
-2.649664625845698
5.733828926620091
-2.1250273981094874
-4.953629217115454
0.5250959008780521
1.576985747557582
5.2170360610766835
0.08557663021344926
-6.6811953080034225
5.794197497709527
0.8167882968486244
-4.24234858243964
-1.5313835876542583
1.4712982085904316
-2.6332431059561343
-1.3464963735515667
3.1253092639744895
-4.212710871623109
-2.444235173381657
1.2999546140707317
1.7056293322778664
-1.0720769413662075
-0.6922832262819796
-0.7910127862065752
0.3246896406278019
0.3499117899127823
-0.509485038071775
-0.3569859642876545
1.9363880395548243
-1.209928572450727
-0.1712048780861075
0.7868839969247101
0.5486628399255508
-0.8649687964503835
0.6452972314536957
0.36461027715643773
-0.8726424282214585
1.4886448358499957
1.4778557535897585
-0.03109491316861873
0.07303070449207459
0.4824431542299332
-1.1268416222549036
-0.2502397842697812
0.447865997837186
-0.9231918271047401
-0.07083089605323081
0.5794385785281246
-0.38213556954266614
-0.6768338721489849
0.5578978850940912
-0.12241577493399365
-0.44968990600218084
4.634973933772448
4.30384276964868
-0.271208852803465
-3.825776653319744
7.023341955681109
-0.48935227470407205
-1.828081068522279
-2.0817688545270667
0.35307474092894386
-1.197475244252745
-1.3094057377510966
0.5418392464774836
-3.8153209531008674
-2.698110650587281
-0.9231229032064028
2.572849948842124
2.538734203186186
-3.2362270428330167
-0.9071097502776226
-0.7168685129244751
-3.094814329817239
-1.4591087932734812
0.27458946678714163
1.5477075266217266
-3.228534338045506
1.4208497110071705
0.34406954395711337
0.8880428234530104
0.5715050487039554
0.6246863851603048
0.21733440627098233
0.02356976017305669
-1.6660422797020944
1.9740581116216287
1.282861708471853
0.14091509272584482
-0.362779559893486
1.0208274824486887
-0.6985712904676902
0.39741679697134075
1.6771685528399107
-0.13378328578293802
-0.4989851123090296
-0.12957189397220314
-0.17302645983968173
-0.7371868255132716
0.41771948364246064
-0.22206510429313808
0.9604222871006333
-0.07735540531889379
-0.4549666343046166
-0.9761106906645619
-0.6877873881928965
-0.2526428087637935
0.3412388992036582
-0.17698935691590462
-0.4661838024740716
0.24657217029609851
-0.12124468107824571
-0.5286245901462922
1.2177134871732387
0.6378276028710437
-0.5243651750963139
0.46243633386761623
3.3521162790339822
-2.15710385243367
-0.13438464039199238
-1.9611533152872223
-1.965024045864238
-1.17023559520281
-0.3442178023032358
0.23805635373450873
-2.7150736383533314
0.607624110930752
-0.5329168195558511
1.76518981048084
-0.8909229403181667
-0.38307076801951656
1.2972728476819262
1.1860117361313613
-3.998935256528983
1.1633951497208403
1.1688751495077614
-0.6172110452801242
-1.598896988566663
2.301872774674705
-0.9019607839528978
1.5535377226024671
3.169293724504544
-0.15532534340547846
-0.5403456307122801
0.2944392647045587
-0.36516760382763963
-0.959021285662561
1.008638410965998
-1.1382990222688476
0.6670948383860894
2.3177482319213576
-1.2617320850659641
0.026791514223096252
2.5933189159317314
-0.7791065349014155
-0.36815598498737667
0.5389375279447428
-0.5213309656992362
-1.52664031122801
0.5656871492706486
-1.1606641061842098
-0.7589480026743153
1.305104269288239
-0.2009600967932537
-0.03461270635707435
1.3733932865866854
0.9085738770006976
-1.1015895527455142
-1.8362765992182477
0.45579891613256607
-0.6196655444773613
-0.7129120725759944
-0.2015512005452811
-0.2570427835898985
-0.07186160062607598
-0.5261618292008082
0.8734651497577671
1.6467205939550036
-1.1336138738758332
0.05803968533518079
1.8781720138641935
-0.13141215817532284
-1.4057083386147735
-1.3746536878087254
0.7713493599453604
-2.539689624723713
-0.3298980666941268
1.147521403193976
3.0239695149347563
-0.3660153829374455
1.0546375003926818
1.0534960654857075
-1.163631296326385
-0.09634145458165025
1.4636138421060763
0.07357577917930087
-2.219924366741299
-0.3858575139357265
0.7199212999547299
-0.4778636809320837
3.0488511610226747
1.3145103566385545
0.04939536490168148
1.275785790599964
-0.12015818754212074
-0.25307184017197926
-0.1946005289925766
-0.12195362609470674
-2.9860119424477336
0.7223321275256511
1.1266806261222122
-1.6556887289543063
0.6241865419076641
2.0310355073832715
0.4348775203829102
0.5088813432917445
-0.6696347336015129
0.2820408044629247
-0.3270503216154019
-0.2037236329575003
-2.8663211569113716
-0.6788915535016281
0.13826836178586838
-1.7937075423423838
0.7925698161005538
2.05755131587975
-1.5303626397361745
0.054506989395870564
3.8361751491086635
3.099822341469842
-1.5541153515708594
-3.1293117305823257
-0.25338874033647096
-1.5422275673902117
-1.8567291335455336
-0.5557958239551396
2.272863325103476
-0.10635076687854197
-0.8020472309230697
1.3319085047250296
2.862878108401208
-2.375755540252914
-0.09430950423653525
3.2676669623783496
-1.5619838642010644
-18.345250090844367
-0.3093229567702615
10.17462429793943
-1.5201071080671704
-0.8605906678735677
12.36907773274113
-0.36144641307016906
-8.566780815370668
1.6570764296638771
1.2460197973152545
-5.370577732538648
1.4928797231161204
2.188545420730487
1.6616054547563908
-1.1084509295739784
2.859019358810644
-1.9155046452469915
9.267419148832852
-0.09577141463025107
-4.236038766911339
8.020591236051729
1.4683273541668145
-5.6172784251406815
0.416905018570412
-0.12908047782151985
-1.6644633297218683
-0.6923544002882945
3.734335520717131
2.792971794231023
-0.12007753821748766
-0.6687969732806562
-0.09399416378362199
3.9839001702824897
1.204214896204248
-0.8480408557390385
1.5601218004130364
1.7858311349025224
-1.679466390188931
-1.2604210107980813
1.1596355115842656
0.12829110405920033
-0.771491139830575
0.021028048757371163
0.6114864283223265
2.706729156835699
-2.017924607453251
0.18667336596231365
0.5460796331887404
2.808368413802241
-0.336542355791761
-0.05284445397930305
-0.66597560203453
-0.6807510473716454
-2.17661755535612
-0.0563234214490075
0.4865265367070323
-0.708533216868793
-0.19490170589286707
1.3028888515917485
0.1805965377486681
0.09802735994321596
-0.6078253022107322
0.6132592397243287
-0.5718081379082002
0.3522605638722641
8.073914394897953
-0.5016589166892391
-2.645501856090922
10.6295397791524
0.4655946978171172
-5.999175135782368
0.4095831125208887
0.2087196778814892
-3.728286879313658
-0.1655439822089809
4.722639819138313
0.8022349921795412
-0.2464999655721227
0.8400477333375144
-0.5129334591964902
8.056450741205873
-0.3712042011939244
-0.855064481571283
2.349022016904785
1.7802725956205614
-4.188600200707339
-0.6854022273618249
1.9717371558670713
-2.612377870629822
-0.7422234053391457
1.5987778146166876
0.3191432818844583
1.6977629997608819
-0.6846403707853567
0.18301266771379984
-0.6648944340498409
0.4657925327260104
-0.5993885246516995
2.9783427965313765
-1.0149233066969852
-2.266520635845226
-0.6049405480072714
0.029174353969219278
-1.2224512862183854
0.15604563178011055
0.13274651804462917
0.3414051196197718
0.030520413683253707
0.6939854196868803
-1.1808329586476858
0.9229324311614571
0.03154677524805014
-1.1469208058675913
1.6516257602011108
0.49074521120363385
-4.6307830887708645
-1.0025634035216682
0.6686866825857372
-0.745897851393368
-0.3390850331143168
1.0751833943994697
0.1657869733092046
-0.23792435139723322
0.4079875528888579
-2.2458713732857216
-0.8501317239242945
0.4122245316320506
0.17881861941704516
3.8940529496120675
-2.9034492623865034
1.6538427747728495
2.9939766080845187
-0.40021494798272284
-2.8950421612648984
0.8583816850562646
0.544822100535247
-2.586440808313837
0.5434609385072754
1.638885489594513
-0.5073123015294158
1.3756009400283988
-0.19040150249598323
-0.8034091794023975
-1.069844979940366
0.8197686124435516
1.56164942422408
3.243344873731617
-3.852225119764279
-2.202629524747913
-1.2833379906982902
-1.3506860997724643
-0.9881757167836523
-1.5337766861072386
-0.0087879613126771
0.9090543810527818
0.7504875707055625
0.5922002020151631
-0.12355454449594708
1.19099320304911
-0.25476564755024805
-0.4168077459300666
2.1674084107491614
-2.0583450506809813
-5.9678078698420505
-2.1997150938879764
-0.6736883571732074
-0.7602854308986996
1.806626544059472
0.6891047906181589
0.9513742618943921
1.3192625256330508
0.3220980464206491
-1.0201641355336026
0.28721463880368786
0.04805243151436794
-1.32662909365728
0.5081409480512877
1.568184373802461
-4.375847829991995
-1.5642117076553694
0.8163495685828344
-0.14457124524438586
-0.718110089279433
2.706072388697114
0.5110320430154449
-0.5981387435621486
0.22057355302619772
0.30637596552257873
-2.690959792551565
0.6340102601984468
0.4424716254745526
-0.4028516803989424
-4.219898545768873
1.6059054806568176
6.140156462744781
-4.421779284415265
-1.7948747859600098
2.6571526008914828
-0.9864664093279958
-3.1704954653910082
1.681621502327756
0.7144107306346646
-1.7594885708887755
0.2195574290798582
0.4940374969526227
-2.439542303054678
0.13535232403774602
1.6399622809309895
1.8711092619521228
3.4220829218571898
-4.95450297233149
-7.006984511410876
-1.6204225509804346
-2.419133224294564
-1.543950139743728
4.102945272100127
-0.5664114311019781
0.591810371159727
2.5399780386688837
0.8087253674892724
-0.5578850475861225
1.2982681219388568
0.5143666887225411
-2.153941813098532
0.13703734155118705
-1.99998371415668
-5.500591222467624
2.643582731501512
-1.4096077555928204
0.10824872622607044
2.7382713449434894
3.5243643854510003
1.4854149404674855
1.815609665407451
0.2953178639759399
-2.6601096609236534
-0.6773292465481974
0.4104572501687995
-1.8946678554582628
-0.8835255232313746
1.175385004435574
-2.6091737476264654
-2.0422473850247953
6.6122398881426525
0.566995717398812
-0.340622697693664
1.9344295680982169
0.7215392383698349
-0.4677274630242588
0.09981866848704446
-0.2222149694953742
-1.7127018399106984
0.7619596700632139
0.8710129535208408
-0.8878407375416055
0.39828747697483813
-6.861784578140315
-1.726623425019908
12.077898814115915
0.6533175543124411
6.340112224345366
6.390467928375415
-0.5452165262700376
-12.89332862848632
1.77454476339422
-4.340974761471523
-5.385321809972873
-0.050658837985755045
-5.563216951618247
0.20678490948121817
2.6597200968267076
5.748515376728768
-3.294023698350756
2.480476430143935
3.4157621157094447
-7.563543615588013
4.030755222183493
-0.44375731032099036
-3.652792543495616
-1.0597713149705574
-1.2080253868379816
-0.4298753029621002
0.834082767386628
4.9438506636424515
-0.2793446663379939
1.4376228819186172
0.016296735682633602
-0.06897554309673262
1.040357878203151
2.170154588999417
1.0623538915126944
-3.299700549540846
0.5975262047423437
0.7749866274082909
0.0030244123217534656
0.8339118706407584
-0.5912873201844777
0.28878084842511
-0.7584759786860082
-0.6519152031391136
-1.1289877484085482
-1.6818390632160107
-0.418534499996598
-4.123896215447163e-05
-0.3133870742891102
0.18247475554096296
-0.03769851601727265
-1.0339875434455694
-1.171793018728124
1.156898133190272
-0.4557256069457803
-1.3080421141714185
0.1454847365040258
-0.22934645856631775
-1.5091139898288466
0.1258033078727862
-0.6264072580885315
-0.45545083844006823
0.7401868287532705
1.5755802867106519
-4.406260485892585
3.637690860956262
0.5614047481979368
-8.723534936273142
2.7430011863772212
-0.32843239138192326
-4.433158038367038
1.6582634654858748
-4.2514246421199005
-0.11693984332728913
1.9864901264675672
5.962409911014256
-2.3414522512002534
4.076502910857354
0.7795892278559705
-1.9896588511073237
4.236542313524519
2.8015078831090325
-1.1110427418394566
-0.05190404330397657
0.5940671877356449
-0.6081047973082747
0.08975718583157569
3.8901058701820075
-2.224379450430509
0.7667550549080022
0.3830332743539119
-1.153009849471368
1.0706259806560878
-0.5687325848183375
-1.1763373951516645
-1.5495684083461856
1.681307473656761
1.013247644275018
-1.7324676681560855
-0.9235481754305959
-2.430614280992173
-0.6840797914165229
-0.5181540086030747
-0.34430151923288477
-0.9594906463273059
-0.4004421488472223
-0.05759266216566754
-0.6246819415781328
0.7333798852076401
0.2781762021132855
1.1063614194045561
0.28590612167591944
-2.1502186059955855
-0.16705069765175132
-0.9076940432240677
1.703584607530295
-0.5801691551178552
1.156932952717316
-0.6423910537918985
-0.08000515987721783
0.582454632981608
0.08232951188535291
-0.5990191152152101
0.9128123685958084
-1.0334357909919414
0.35900139822424554
0.19972253017218558
0.5609420837813411
0.9683296866756859
4.337831046491879
-0.037747827867656535
2.4036873169155664
2.4355276371209573
0.6995576210918109
-0.8071576683063743
3.0841689055437573
-1.4821086604949152
-0.2044079555386616
0.11469665420077146
-1.5650878690174819
1.3025035125887878
0.6503604208963193
-1.203452230737631
-2.206895339906982
0.9910920221377805
2.358391243527166
0.2840666789100288
-1.721840751556555
-1.207767474394867
-0.32265009141301665
-0.9779076821845314
-2.4861355934577536
0.7237845438597493
-0.9026539616155569
-0.767518066033501
-1.090077665433637
2.2380851114362548
-0.8587548959126247
0.5989468067181214
1.34452047929517
-1.0446039930895625
0.23347834423596758
-3.137593608212655
0.12008116397619274
-0.12560572015510904
-0.11684443268437243
-0.8775361975758157
0.4815165966982993
0.663090553670094
0.047294880157624765
0.24378232592527374
1.1401530719028037
-1.4209593448592681
0.41109152039902064
0.05812097612335175
0.5046836287822828
-0.15923750879730483
0.6869616784118362
0.38614539223790306
1.162516355620941
1.667083890495814
-0.20629308496237309
-1.206008874031
0.5203421942353146
-0.4513776273757487
-0.8501732697250018
0.16880108985731757
1.7233422726370382
0.4507222781311545
0.9964452232993048
0.6140535140532568
0.02831088969166116
6.241771804252399
0.7467495103323455
-2.750147163644958
-1.7276114270650718
-2.2645563396929744
-4.767391794403211
0.49804966048419086
-0.5489672423576478
-3.503820348701765
1.7629057891269957
2.214292863529508
-2.432067104834008
5.296188325260846
2.792475016366791
-2.6129234133209076
-0.22772804149630335
1.475212767443588
-1.6214893116876135
-4.802863500971256
-0.8935542630301245
-1.487236399932914
-1.3296188772579831
0.1699064884368613
1.297636804254249
0.7682091381969111
1.2722549266621592
0.23138464594566238
1.1305555874871707
0.03975332384748744
-1.0740078815060687
-0.7671840224576707
1.6351468904310005
-1.072769070742665
-2.788423634460121
1.1499743895150503
4.368218666814992
-0.4891189789319827
1.0679291442304804
1.1161978884216992
0.44810769723658184
0.48428250937999
0.5430227494592417
-0.9289913428434338
0.7367298802656432
0.004992730139132878
-0.47571879058444705
0.2627538882758792
0.829022013655458
1.2442267113292729
2.235567923330239
0.29811560074783483
-3.7045492731374603
2.545063937530216
-1.1055583128232471
-1.6096879976968825
1.1888150571240392
1.3972965955293486
-1.75464628466309
1.3303561188426545
1.439892260823445
2.1384613278828692
-0.7354879328509561
1.3276621859847333
-1.8283033328543525
