0
-11.472319832115238
0
0
0
0
0
0
0
0
0
0
0
-6.125582563204742
-7.695839722178033
0
0
-6.425924246635618
0
-11.772627627146994
0
0
0
-8.160079477395753
0
0
0
0
-4.698638091947905
0
1.0950493594487727
-5.576800331046386
0
0
0
0
0
-9.718348072951462
-5.9398252649954095
-1.3271495123978527
0
0
0
-13.56318396989521
0
0
0
-8.78619862990973
0
0
0
0
0
0.2980098216362692
0
0
0
0
0
0
0
0
0
0
-10.12869512465365
0
0
0
0
0
0
0
0
0
0
0
-18.01347394203737
-12.692326559186032
0
0
0
0
0
0
0
0
0
0
0
0
0
0
0
-6.290289986004812
0
0
-3.252091260991907
0
-4.9498563309276244
0
-20.284992067024902
0
0
-0.0854885095729403
0
0
0
0
0
0
-9.541753793390198
0
0
0
-6.095008040780394
0
0
0
0
0
0
0
0
0
0
0
0
0
0
0
0
0
-3.657115119374633
0
0
0
0
0
0
0
0
0
0
-15.156557695281139
0
-4.597573276023156
0
-4.323064565474993
0
0
-14.53393848745917
0
0
0
0
0
0
-5.609673688776254
0
0
0
0
-10.11263664861689
0
0
0
0
-9.529426996259096
-5.871838489013529
0
0
0
0
0
0
-2.396685452575638
0
0
0
0
0
0
-7.002765519982795
0
0
0
-7.349507780241743
0
-11.140647028666942
0
0
0
0
0
0
0.6893812092362654
0
0
0
0
0
0
0
-7.780519318907071
0
-10.164713889410393
0
-0.0854885095729403
0
0
-7.03302759867426
0
0
0
0
-15.810159078240188
-2.1550465851056853
0
0
0
0
-12.153847029917829
0
-8.17426951442322
-5.202054901025152
0
0
-6.731350740072637
-8.692244095864286
0
0
-4.099155443829273
0
0
0
0
0
0
0
0
0
0
-13.051961347645992
-3.403526502127081
0
0
-2.1507069459536154
-9.857296293118806
0
0
0
0
0
0
0
0
0
0
-11.254958495601352
-5.520009807630196
0
0
0
0
0
0
0
0
0
0
-8.867866819688793
0
0
-10.364785619639527
-15.20160485472598
0
0
0
-0.15913932178138354
-8.769018588875634
0
0
0
0
0
0
0
0
0
0
0
0
0
0
0
0
0
0
-11.265190964716021
0
0
0
0
0
0
0
-10.994764954115846
0
0
0
0
0
0
-7.320110811816691
0
0
0
-5.791187478727684
-11.042170628911297
0
0
0
0
0
0
0
0
-5.820240694731373
0
0
0
0
-10.59404386463154
0
-11.152022559489252
0
0
0
0
0
0
-10.266894402453577
0
0
0
0
-14.433014667423782
0
0
0
0
0
0
0
-3.731793583172083
0
0
0
0
-16.150181030724244
0
0
-15.894791801861892
-1.7990490749318302
0
0
0
0
0
0
0
0
0
0
-1.0241939373437694
0
-16.019553006618704
0
0
0
0
0
0
0
0
0
0
0
0
0
-12.19354479648135
-10.539566000151662
0
0
0
0
0
0
-9.45376828115662
0
0
-9.243247792198407
-5.396801343759587
0
-12.537174143909587
0
-16.122166854617614
0
0
0
-2.291726649533125
0
-12.112615678291858
0
0
0
0
0
0
0
0
0
0
0
0
0
0
-6.33047155270889
0
0
0
0
-6.548221061025528
0
-12.630343842055186
0
0
-13.22390594434847
0
0.16186522446417773
0
0
0
-11.406629173811977
0
0
0
-6.10294172887671
0
0
-9.22874680436277
0
0
0
0
0
-5.0288028599025685
0
0
0
-0.680011285973771
-9.691827969307463
-7.717342850043805
-6.8126501957174606
0
0
-9.769095368508344
0
0
0
-5.306365609251762
0
0
0
0
-2.7302974740610635
0
0
0
0
0
-9.053146856044263
0
0
0
0
0
0
0
0
0
-6.503698185244955
0
0
-12.259658401017468
0
0
0
0
-10.471937383539627
0
-9.493187266624187
0
0
-4.967343374535864
0
0
-11.60820115333465
0
0
0
0
0
-5.528878218827402
0
0
0
0
0
0
0
0
-6.923981180908285
-8.920720428115002
0
0
0
0
0
-3.9377478570002022
0
0
0
-6.825743261298719
0
0
0
0
0
0
0
-0.7657234449620407
0
-14.703236174573325
0
0
0
-16.81656219404597
0
0
0
-14.834594708931398
-0.0854885095729403
0
0
-7.210696852121317
0
0
-5.129193748162351
0
0
0
0
-11.254487308125073
0
-11.807557659898501
0
0
0
0
-4.961641499424237
-6.752892103159297
0
0
-14.26082225335101
0
0
0
-4.272363851591069
0
0
-6.845991245097652
-8.399941795799105
0
0
0
0
-3.1481611837319883
0
0
-8.045600506788794
-4.105280344051035
0
0
0
-6.403807610874168
0
-14.355652077123102
0
0
0
0
0
0
0
0
0
0
0
0
0.09382484276652085
0
-4.756051754165618
0
0
0
0
0
0
0
0
0
0
0
0
0
0
0
0
0
-5.878353714118636
0
0
0
0
-3.8871086551362226
0
3.243428904486211
0
0
0
-11.27687197309189
-3.392597274979994
0
-4.026805228089743
0
-9.475397914269653
0
0
0
0
0
0
0
0
0
0
0
0
0
0
-7.664749679565104
0
0
-0.7471348547999533
0
0
0
0
0
0
0
-8.241448501232384
0
0
0
0
0
0
0
0
0
-13.911643970219345
0
0
0
-12.583289242861403
0
0
0
0
0
0
0
-6.992843378926813
0
-7.658189070832783
0
0
0
0
1.0433044870575543
-5.418608691421636
0
0
-10.117112625553679
0
0
0
-13.756154699520229
0
0
-8.461053453045842
0
0
0
0
0
0
-7.62594116543804
1.1324596340938653
-8.644393839572276
0
0
0
-10.111954797453278
-1.5872150275961747
0
-0.5545269458945977
0
0
0
0
0
0
0
0
0
0
0
0
-7.4914493066295975
0
0
0
0
0
0
0
0
0
0
0
0
0
-5.294342930365748
0
0
0
0
0
-13.260357185679743
0
-6.7845899727345635
-7.099979282769908
0
0
0
5.787827250792848
0
0
0
0
-18.067103116513998
0
0
0
-10.192793008494073
0
0
0
0
0
0
0
-14.280545266864706
-2.50049042476632
0
0
0
0
0
-14.323950776765143
-9.579007726933431
0
0
0
0
0
0
0
0
-10.684043142486056
0
0
0
0
0
0
0
0
0
0
0
0
0
0
-8.73839414424504
0
0
0
0
0
0
0
0
0
-7.380083049109767
0
0
-3.017718081561359
0
0
-5.218909117701887
0
0
0
0
0
0
-11.257307742522855
0
0
-6.842182950234127
0
0
0
-3.7608430998139717
0
0
-13.157860576636107
2.409865736104898
0
0
0
0
-10.060882913490685
0
0
0
0
-3.5650561119405184
0
0
0
0
0
0
0
-12.142250880205172
0
0
-6.067904929100984
0
0
0
0
0
0
0
-6.6883358495139
0
0
0
0
0
-8.384560380540112
0
0
-8.575726295586302
-0.1783335702029215
-6.430952342084554
-3.9625362180999506
0
-1.4964142643593428
-10.548714076665334
-1.1946323366426246
0
0
0
0
0
0
0
-7.444625087864627
-13.25033817036175
0
0
0
0
0
0
0
-14.898381459199005
0
0
0
0
0
0
0
0
0
-13.503083973238006
-14.80944344062734
0
0
0
0
0
-5.448470859477338
0
0
0
0
0
0
0
0
0
0
-10.541251872587692
-8.094267827204938
0
-11.161351913962012
0
0
0
-10.935922749097296
0
0
0
0
0
0
0
0
0
0
0
0
0
0
-0.3208599783552228
0
0
0
0
0
0
-2.19674449131395
0
0
0
0
0
0
-1.1706282825099636
-2.2701963872684567
0
0
-8.932170847701016
0
0
0
0
0
-7.630326062861983
0
0
0
0
0
0
0
0
0
0
0
0
-12.586953294749543
0
0
2.4396712000438536
0
-0.1729917604887492
0
-8.038806324218783
0
0
-2.813153730871768
0
-9.177049848122975
0
-11.919340569391846
0
0
-12.242110496818935
0
-17.093911011650786
-6.8480746272922355
0
-8.989058757027511
-9.452292469509036
-0.6330605164844546
-1.763426635986468
0
-1.0027207936621125
0
0
0
0
0
0
0
0
-12.257396519819805
0
-10.207908364702334
0
-6.8237774836582945
0
-2.43002475643892
0
0
0
0
0
0
0
0
0
0
0
-4.666024213508859
-9.699201364739567
0
0
0
0
0
0
-9.369383426348083
0
0
0
0
0
0
0
0
0
-8.637158660243067
0
0
-9.773339301575675
0
0
0
0
-14.992964472484333
0
0
0
0
0
0
-11.090896421819878
0
0
0
1.5047685772721158
0
0
-2.434996614324404
0
0
0
0
0
-11.109539814701094
-2.0779458662202335
0
0
0
0
0
0
0
0
4.075148299577199
0
-8.911829232453877
0
0
0
0
0
-7.937291220790796
0
0
0
0
0
0
-10.025254533998877
0
-1.746573455971239
0
0
0
0
0
-5.520762644058461
0
0
0
0
-13.916986430831434
0
0
0
0
-5.93326033410745
0
-11.014914247894604
0
0
0
-13.52493820848527
0
-7.279684826912809
0
-3.6556827115354724
-4.053883334485343
-3.8287698628843665
0
0
0
0
0
0
0
-4.38069468257825
0
0
0
-5.528802625353879
-15.855773804004485
0
0
2.1183599197327427
0
0
0
0
0
0
0
0
0
0
0
0
0
0
0
0
-4.859106251690641
0
0
0
0
0
0
-8.035473680519575
0
0
0
0
0
0
0
0
-3.1192530705937584
0
0
0
0
-10.2090202628999
0
-10.206682257920598
0
0
-1.8731139922162847
0
-11.899838832510525
0
-2.0897778277774015
0
0
-11.825537146758515
-7.575672460419133
0
0
0
0
0
0
0
0
-2.520092429750944
0
0
0
0
0
0
0
0
0
-1.3364743322966184
-7.365231892455007
-2.3024876225749633
0
0
0
0
-4.656871380832348
0
0
0
0
-6.209983666286163
0
-5.031011112588026
0
0
-2.2258417116357636
0
0
0
0
0
-5.7698369180115545
0
0
0
-9.246620248313164
0
0
0
-9.452394998909762
-6.443849496205032
0
-13.53881535480986
0
0
0
0
-11.29247686924736
-5.527698016018464
-7.9738725456663175
-12.7347745511024
0
0
0
0
0
-10.747630144735782
-9.179386768719148
0
0
0
0
0
0
0
0
-13.45508835037565
0
-10.064111693327835
-0.7884828824676811
0
-7.489225179416283
0
0
-6.791118486426041
0
0
0
0
0
0
0
0
0
0
0
-3.585678316617601
-9.44508756964198
-4.613889641630623
0
0
0
0
-7.515520943763161
0
0
0
0
0
0
0
0
-5.072980967641408
0
0
0
0
0
0
-12.355861253311547
0
0
0
-17.666674378979927
-13.91206946304902
0
-1.879216164347523
0
0
0
0
0
0
0
0
0
0
-13.573541858856224
0
0
-10.70352709946433
-0.6513595821353246
0
0
0
0
0
0
0
0
0
0
0
0
-10.211442872329842
0
-0.304670842140167
0
0
0
0
-14.501647325237295
0
-4.375434596359404
0
0
0
0
0
0
0
0
0
0
0
0
0
0
0
0
-19.54290315436157
-9.87347413634809
0
-14.69593343074225
0
0
0
0
0
2.2819944395378267
0
0
0
0
0
-14.686785320810024
0
0
-5.432414670744649
0
0
0
0
0
-12.651468162237439
-15.334540464079637
0
0
0
0
0
0
-5.279213211012953
0
-6.765556319303366
-4.044127985700375
0
0
0
-3.9269774278402454
0
0
0
-9.439134093232745
0
-7.598997248724159
0
-9.857597063153216
6.914816350838116
-4.304446380659028
0
0
0
-15.146736679426192
-10.218375723564433
0
0
0
0
0
0
0
0
0
0
0
0
0
0
0
-4.3444761262982885
0
0
0
0.04681498494941117
0
0
0
0
-7.264736673473903
0
0
-11.038049972468668
0
0
-9.487051559314972
0
0
-14.125364227331307
0
0
-10.639054526432899
-0.916315927658151
0
0
0
0
0
0
0
0
0
0
0
0
0
0
0
-5.426887172216929
0
0
0
-13.720644243853272
0
0
0
0
0
-6.814692003503474
-14.213636143932852
0
0
0
0
0
0
0
0
-12.003792170845767
0
0
0
0
0
0
-12.185693723484858
0
0
0
0
0
0
-11.640274298807196
0
0
-4.183529080454795
-9.754016132626356
0
0
0
0
0
0
0
0
-10.13388246195991
-10.078119743801592
0
0
0
0
0
0
0
0
-3.963725278949576
0
0
0
0
0
0
0
0
0
0
-7.818725225801858
0
-10.941009032509324
0
0
0
0
0
-5.869350269345725
-6.875241454364701
0
0
0
0
0
0
0
0
0
-7.282495672626672
0
0
0
0
-5.707795914816172
0
-4.434503941454109
0
0
-6.875423958075235
0
0
0
0
-3.83640918620916
0
0
-12.12115414116624
0
0
0
-5.205740892156986
0
0
0
0
0
0
0
0
0
0
0
0
-5.809282686033953
0
-7.970589631129382
0
-4.889771074678408
0
-11.082075780182414
0
0
-7.765934897774341
-14.467841202950424
0
0
0
0
-9.070666843530729
0
0
0
0
0
0
0
0
-10.473964265239497
0
-10.775551304149063
0
0
0
0
0
0
0
0
-15.137267545587235
0
0
0
0
0
0
-5.814863116905716
-2.1968954744262983
0
0
0
0
0
0
0
0
-0.17382271573635102
0
0
0
0
0
-10.300390718928961
0
-5.8602778923178285
0
0
0
0
0
-4.041869902991923
0
0
0
-10.9796658169822
0
-7.3506609308729125
0
0
0
0
0
0
0
0
0
0
0
0
-11.025964061263478
0
0
-9.361093531724586
0
0
0
0
0
0
-5.075256554601329
-11.06603973926337
0
0
-10.725920212928596
0
-0.6992224074021773
0
0
0
0
-5.217810145634688
-9.11151376168702
0
0
-6.52069883292438
0
0
0
0
0
0
0
0
-8.34517643985872
0
0
0
0
0
0
0
0
0
0
0
1.9255214306463926
0
0
0
-5.2584883545329015
0
-6.491102308824062
0
0
0
-10.897858158794852
0
0
0
-3.885377297162191
-10.99373392627634
0
0
-7.918585276637094
0
0
0
0
0
0
0
-4.6441416963789
0
0
0
0
0
0
0
0
-8.265060219864052
0
-11.348454053087769
0
0
0
0
-3.280115863462912
0
0
0
0
0
0
0
-3.109492314973491
0
-16.611001609970124
0
0
0
0
0
0
0
-5.751681610511912
0
-10.444017004180877
0
0
0
0
0
0
0
-8.635198554672913
0
-8.806609725873617
0
0
0
0
0
0
0
0
0
0
0
0
-13.488827197955915
-6.045820151117543
0
-4.817672209591805
0
0
0
0
0
0
0
0
0
0
-13.538380265242251
0
0
0
-5.231658067250344
0
0
0
0
0
0
-1.3855745976985752
0
0
0
0
-1.2051113298191252
-6.745204817689625
-3.8982878563621686
0
-12.400855643268478
-5.805556046698582
0
-8.299214709952615
0
0
0
0
0
0
0
0
-5.345456078234344
0
0
0
0
0
0
0
-2.5934085034858665
0
-7.5999760272581245
0
0
0
0
0
0
0
0
0
0
-9.070428187380172
0
0
0
0
0
0
0
0
0
0
0
0
0
0
0
0
0
0
-10.26680775365869
0
0
0
0
0
0
0
0
0
-4.794837607217715
-7.556032365662036
-4.7965681716697635
0
3.8410142784636343
0
0
0
0
0
-9.962885633431211
0
-8.582581400117139
0
-13.163115013498015
0
0
-7.858329864742268
-4.117460499031295
0
0
0
0
0
0
0
-5.690897967821805
0
0
0
0
0
0
0
-8.14799105744368
0
-0.5105990259388303
-8.894773167072737
-5.087363885163094
0
0
0
0
0
0
-0.8739675783124329
0
0
0
-14.50627616536151
0
0
0
-14.723472759108457
0
0
0
0
0
0
-9.392655528041962
0
0
0
-5.589097884891883
0
-9.445613625455733
0
0
0
1.714632375529003
0
-9.815889824011217
0
0
0
0
0
-15.095103373475178
0
-6.598677995888904
-2.8104514836802026
0
0
0
0
-10.500055423476029
0
-14.36874861964154
0
-13.094367194370351
0
-17.155278125539954
0
0
0
0
0
0
0
0
0
-10.666680393087326
0
0
0
0
-7.603733319314621
0
0
0
0
0
0
0
-11.58483136930849
0
0
0
-8.443437927499584
0
0
0
0
0
0
0
0
0
0
0
0
-7.724820513580943
0
0
-3.01587599997629
0
0
0
0
0
0
0
0
0
-7.676990589939712
-5.474876513802583
-10.51105399472456
-6.693330277077235
0
0
0.9498950791244162
0
0
0
0
0
5.367082364067688
-7.586756781271858
0
0
0
0
-10.905336105538256
0
-9.203018568887742
-10.41632139871582
0
0
0
0
0
0
0
0
-10.554906523508569
-0.9532832238207287
0
-2.939581791983783
0
0
0
0
0
-6.262608705306274
0
0
0
0
0
0
0
0
0
-6.869885366599735
0
0
0
-13.801960117073225
0
0
-4.029027485638825
0
0
0
0
0
0
0
-11.314460414100466
0
-4.78191572525664
0
0
0
-8.862481648865678
0
-3.014208525898541
0
-13.096747093220593
0
-15.11086653616267
0
0
0
0
0
-9.106431717249377
0
0
0
0.9228555472513585
-5.783942031200858
0
0
0
0
0
0
-1.4298889863229383
0
0
0
-14.62242179090968
0
0
0.8982688660870287
0
-8.714739413879427
0
-9.293295832594822
-13.318366381862209
0
0
-14.808312639222667
0
0
0
0
-5.569850243944557
0
0
-14.652146529144048
0
0
0
-2.483909070457987
-15.153221515825233
0
1.0441544854217077
0
0
-12.68250590973727
0
-6.763393774189973
-1.616767166378156
0
0
-9.207668781110366
0
-6.5271908370484315
0
-3.345177642891415
0
0
0
0
-13.002527440348535
0
-12.110816877975894
0
0
0
0
-18.677225329018565
-4.215194314892242
-6.282239088812385
-10.297316872564917
0
0
0
0
-9.35668123029611
0
0
0
-7.866271801039112
-12.324713150128552
0
0
0
0
0
0
0
-8.481268729949576
0
-14.428607288798997
-2.7988820106462278
0
0
0
0
0
0
0
0
0
0
0
0
0
0
0
0
0
-7.544253436070059
-3.4002119025492608
0
0
0
0
0
0
-5.244848158362953
-9.011127948187548
-5.840495190507129
0
0
0
0
-11.627522119881624
-10.90551978896491
-1.644391238833831
0
0
0
0
0
0
0
0
-4.738185138672428
2.438333608823878
0
-5.448720819002874
0
0
-9.804912883299037
-0.8876380940903179
0
0
0
0
0
0
0
0
0
-9.40476289961855
0
0
-1.5979910936892185
0
0
-10.520034857438977
0
0
0
0
1.392852382318228
0
0
-15.194219287235471
0
0
-5.13781539637896
-4.483942824030958
-14.450804360790501
0
-2.7783907094455302
-0.09277208130504426
0
0
0
-1.5843332057644905
-1.5878923505292017
0
0
0
0
-8.837487648945162
0
-11.190792793011033
0
0
0
0
-14.866396708792932
0
0
0
0
0
0
0
-0.017942659424851248
-8.448173053131857
0
0
0
0
0
-12.172194955146656
0
0
0
0
0
0
0
0
0
0
0
-4.452087298248229
0
0
-11.19118826694474
-2.7316339499711475
1.8144766194484099
0
-2.5004190186397537
0
-0.8026290555842315
-11.69379744304971
0
-7.354163366157918
0
0
0
0
0
0
0
0
0
0
-2.7561713771628567
0
0
0
0
0
0
0
0
0
0
0
-9.652415287570157
0
-4.158041060637922
0
0
0
0
0
0
0
0
0
0
0
-6.549970969625944
0
-5.751674033982418
0
0
-10.254535180285403
0
0
-8.095837994144379
0
0
0
0
0
0
0
0
0
0
-6.141872892841504
0
0
-11.32686623686208
0
0
0
0
0
0
0
0
0
-7.931082303165717
-5.2368261037947
0
0
0
-2.4740679119666424
0
1.7507967204954797
0
0
0
-4.873204793369473
0
0
0
0
0
0
0
0
0
0
0
0
0
0
-6.408085255878118
-3.235559431313362
0
0
-3.510813183701032
0
0
-3.920789258495416
0
0
0
0
0
0
0
-3.691842841349028
0
0
0
-13.166920788624557
0
0
0
-3.2111184326424294
0
0
0
-13.224345707269766
0
0
0
3.7052947815264097
0
0
0
0
0
0
0
0
0
0
0
0
0
0
0
0
-6.393917959269233
0
0
0
0
0
0
0
0
0
0
0
0
0
0
0
0
0
-9.481626897040412
-4.836910225335629
0
0
0
0
0
-9.912518438030524
-2.819159029681467
0
0
0
0
-6.503495173894879
0
-9.56770757304708
-13.013567787315399
0
0
0
0
0
0
0
0
0
-4.01817069391833
0
0
0
0
0
0
0
0
0
0
0
-14.647934802362174
0
-3.8279410273010597
0
0
0
-2.8390017323819383
0
-0.6967999146915622
0
0
-9.70926193506861
0
0
0
0
0
0
0
-9.773082422231743
0
0
0
-9.222533627532478
0
0.6919170529734163
0
-6.952623348363247
-4.773769261389437
0
0
0
0
0
-5.128538677545824
0
0
-7.4486385157498844
0
0
0
0
-7.896225332039847
-0.10974367536157514
0
-8.700473030006814
-13.500882590726954
0
0
0
-12.341458586537913
0
0
0
-20.778035000075246
0
0
0
0
0
0
0
0
0
0
0
-9.707974766498523
0
0
0
0
-2.5277559718549494
-0.14414425107161227
0
0
0
-8.840496295431791
0
-4.937593577536871
0
0
0
0
-15.977831629433082
0
0
0
0
0
-16.16537560229254
0
0
-8.714852341029292
-7.020726651362086
-7.135115080409748
0
0
0
0
0
0
7.082116310698905
0
0
0
-4.033854176403473
-3.3490309093448625
0
-1.0589389782123
-12.937576974901498
-10.18293224309973
0
0
0
0
0
0
0
0
0
0
0
0
0
0
-10.479624319427456
0
0
-8.078937312389245
0
-7.370692284448524
-13.266784741880443
0
0
0
0
0
0
0
0
-11.570140548799428
0
-3.5789861522778836
0
0
0
0
-4.903149374091565
0
0
-15.793770291103522
0
0
-4.916333514199398
-5.050815478292156
0
0
0
-8.276398010067142
0
0
-2.285233271201834
0
0
0
0
0
0
0
0
-6.030078778646732
0
-5.560463110562836
-5.338599782428592
-8.009965227788536
0
-10.63501519394561
-0.775900158119306
0
-14.41519091165473
0
0
0
0
0
-14.602669198898976
0
0
0
0
0
-11.025420655332166
-9.197024879205815
0
0
0
0
-11.474897468846892
0
0
-8.239429546806955
-5.497213465746982
-4.806688000390363
0
0
0
-5.496379733398552
-7.951489981884781
0
-6.245328926043313
0
0
0
0
0
-1.2876890206984624
0
0
0
0
-10.279788939132834
0
0
-6.7842470571919895
0
0
0
0
0
0
0
0
0
0
0
0
0
0
0
1.626524067653912
0
0
-16.73982938531606
0
0
0
0
0
0
0
0
-9.296566864669884
0
0
-4.809055988369989
0
-9.024642920686338
0
0
0
0
-8.10245255482011
0
0
0
0
0
0
0
0
0
0
0
0
0
0
0
-4.394681619169444
-6.012549296192825
0
0
-13.749200362713745
0
-13.521601135033107
-5.105709249815433
0
0
0
0
0
0
0
0
-1.6585122563425199
0
0
0
0
0
0
-5.129075267742131
0
0
-0.9922580415686317
-6.363465233192137
0
2.136996391005455
-7.721190986830691
0
0
-12.841099996993336
0
0
-3.570394131711003
0
0
0
0
0
0
0
0
-13.777669016463747
-11.225275147689953
0
0
0
0
0
0
0
-13.324163631039665
-6.4431247393860875
0
-3.6046861348782038
-12.20660341164767
0
0
0
0
0
0
-6.370077755697622
0
0
0
-4.214443604539693
0
0
0
0
-10.09704005711689
-4.377468871497059
0
-5.577979288674178
0
0
0
0
0
-5.34269752472383
0
0
0
0
-11.250942408555547
0
0
0
0
0
0
-6.073561895722183
-0.5317856845938155
-3.7435995780784754
0
0
-10.403942724719542
0
0
0
-5.585040173574336
-6.151981114377315
0
0
-8.169929926697735
0
0
0
0
0
0
0
0
0
0
-15.520423270554938
0
0
0
0
0
0
0
0
0
0
0
-7.405452305953162
-14.194773403683282
-7.219531583785193
-13.499433534863782
-0.33139024485592283
0
-9.159150274544375
0
0
0
0
0
0
0
0
0
-0.017942659424851248
0
0
0
0
0
-14.536997517490896
-8.833994743625022
0
0
0
0
0
-4.177881723971855
0
0
0
0
0
-3.688207566170085
-11.832378013595754
0
0
0
0
0
0
0
0
0
-9.921138538248066
0
0
0
0
0
0
0
0
0
0
-6.549257885593736
0
0
0
0
0
0
0
-6.923063551642194
0
0
0
0
0
-8.039729948212102
0
0
-3.3939509898999236
-4.997027234406782
-3.1937956634482267
0
0
0
0
0
0
3.6873693929087956
0
0
0
0
-4.128944344531809
0
0
0
0
0
-7.3115048827710485
0
0
-0.6602523278424102
0
0
0
0
0
0
-5.837046788901652
0
0
0
0
0
-15.668264333071166
0
0
0
0
0
-15.615308272708077
0
0
-11.453637640917048
0
-8.162901432572962
0
0
0
0
0
0
0
0
0
0
-5.591837602661491
-12.471084162964514
0
-5.446454492256644
0
0
0
0
0
0
0
0
0
0
0
0
0
0
-4.2224751323836305
0
0
0
0
0
-10.518703100048123
-15.346009114395637
0
-3.982242574445737
0
0
0
0
0
0
-1.762523358770187
0
0
0
0
0
0
0
0
0
0
-13.862596905415844
0
0
0
0
-14.628115340330833
0
0
0
0
0
0
0
0
0
0
0
0
0
0
0
0
0
-17.529907484189863
0
0
0
-4.164255730206665
-2.067110325446339
0
0
0
0
0
0
-15.1315120337287
0
0
0
0
0
0
0
0
0
-2.5191344321693205
0
-12.493728800303652
0
0
0
-14.030465675062576
0
0
0
2.435461223723943
-9.840954248575805
0
0
0
0
0
-4.13456464856416
0
-14.689899191242793
0
-8.829250509526554
0
0
0
-16.53855976857089
0
0
0
0
0
0
0
-15.552001974956625
0
0
0
0
-8.082014534135956
0
0
0
-13.135607558522086
0
0
-16.70799110852136
0
0
0
0
-15.714366945698119
-14.775397173011154
0
0
0
0
0
0
-4.666165741758695
-4.615228377494466
0
0
-6.980272345852001
-5.497277655454622
0
-8.628474505534516
-7.096223861775235
0
-2.631672656727408
0
0
0
0
0
0
0
0
0
-2.7070151807990928
0
0
0
-6.2186386012547885
0
0
0
-14.991717955380247
0
0
0
0
-15.903324929727741
0
0
-8.518108909837759
-0.09524116773111213
-15.416362584855744
0
0
0
0
0
0
0
0
-3.017565295297469
0
-11.919808104322472
-8.253132078449841
0
0
0
0
0
0
0
-11.353038652853986
0
0
0
-0.4197260678703294
-9.333062141508949
0
-6.604758641961657
0
0
0
0
0
0
0
-2.644428744199322
0
-13.28472318578208
0
0
0
-8.478718446531916
0
0
0
-13.285337392132101
-11.015291635686717
0
0
0
0
0
0
0
-2.219005106801021
0
0
0
0
0
0
0
0
0
0
0
0
0
-13.602575336451816
0
-6.057917869801646
-7.06134184738714
0
0
0
0
0
0
0
0
0
-9.533481407682492
0
0
-2.9693423136355865
0
-12.744310935029322
0
0
0
0
0
0
-2.6700119606221384
3.7280286080536054
0
0
-6.943341015615761
0
0
0
0
-15.354114025331327
0
0
0
0
0
0
-7.342886004546221
0
0
0
-7.160898537777251
0
-10.01808802015155
0
-12.47278781496794
0
0
0
0
-11.14496658453113
0
0
0
0
0
0
0
-8.001719247907792
-8.047892272496556
0
0
0
0
-0.258958805850336
0
0
0
0
-14.98284496028701
-10.881678396243903
0
0
0
0
0
0
-0.5307868987905761
0
-9.434776708997358
0
0
0
0
0
0
-1.4639820612289445
0
0
0
0
0
0
0
0
0
-15.522192923832533
0
0
0
0
-11.297766735621138
0
0
0
-8.41477235901621
-4.493379797819897
0
0
0
-5.903495324723366
0
0
-1.8941091056994592
-7.473055145911221
0
0
-5.382115090735058
0
0
0
-11.54371301840281
0
-6.047091781939474
0
0
0
0
0
-5.001694519496184
0
0
0
0.4625892506176664
0
0
0
0
0
0
-12.694915097939825
0
0
4.671354215569333
0
0
0
0
-10.632372841940418
-5.633377182389621
0
0
0
0
0
0
0
0
0
0
0
0
0
0
0
0
-14.0172004676221
0
-9.609517011389668
0
0
-7.341501340438051
-6.935390587364795
0
0
0
0
-4.913596425079287
0
0
-1.1334002041594002
-7.1605135377118
0
0
-6.7168990200412875
0
0
0
0
0
0
0
0
0
0
-2.7006176578096337
0
0
0
0
-6.5136226513039075
0
0
0
0
-4.1909173170925955
0
0
0
0
0
0
0
0
0
0
0
0
-9.04250037986995
0
0
-3.5123069369214015
-20.61133688059468
0
-5.887505550276662
-2.4045926371187076
0
0
0
0
-1.4117222261626543
0
0
-7.093005690052603
0
0
-8.87479014273177
-2.154063357284736
3.312730154706527
0
0
-7.0607170458216695
0
0
-3.913794282062504
-6.2660021265457955
0
0
-4.706223785958316
0
0
0
-11.23550562410902
-6.879433996600112
0
0
0
-6.411329844254631
0
0
0
0
-6.578997486675679
0
0
0
0
0
0
0
0
0
-2.2807407582689256
0
0
0
0
-1.1503359237475812
0
0
-2.1104806003700016
0
0
0
0
0
0
-13.34604417338229
0
0
0
0
-3.2034731846098334
0
0
-3.9727033191308667
0
0
0
0
0
0
0
-8.89995541138021
0
0
0
0
-1.8701883857091008
-7.726910512526632
0
-9.858406408442423
0
0
-5.425031127393424
-11.19036792143895
0
0
0
0
0
0
0
0
0
-7.494579767679156
-6.837123438771703
0
4.186303858990453
0
0
0
0
-12.679531036323958
0
0
1.9961838477816845
0
0
0
0
0
0
0
0
0
0
-1.2609332026298374
0
2.9898987299059896
0
0
-8.898233901071247
-10.275522106240103
0
-3.623742740836099
0.12945665337374046
0
0
0
-14.991527885524983
0
0
2.5309436440788993
-15.248543071678219
0
0
0
0
-0.9489594440503584
0
0
-6.5691744561609395
0
0
0
-11.91153329986836
0
0
0
-3.6937428485308197
0
0
0
-7.171053894524001
0
0
-7.848658282132919
0
0
0
0
-8.925981074225259
0
0
0
0
0
0
0
0
0
0
-3.7376108056679174
0
0
0
0
0
0
0
0
0
0
0
0
0
0
-12.95479245991531
0
0
0
0
-7.027858765613434
0
0
-3.6103061876852705
0
-13.267320329110222
0
-4.654503424713827
-11.69791103948497
0
0
0
0
0
0
-1.7375019923780557
0
-11.741895976860002
0
0
0
0
-9.312702148619312
0
0
0
0
0
0
-5.097620958866329
0
0
0
-7.273284546068403
0
0
-15.132198272122958
-5.319686596536519
0
0
0
-12.532970603198365
0
0
0
0
0
0
0
0
0
0
-12.012919244170707
0
-15.246254986334822
0
0
0
0
0
1.4967945471239998
-7.890518633511418
0
0
0
0
0
0
-16.262578355612035
0
0
0
-10.859380833195072
0
0
0
0
0
0
0
-8.557513989069257
0
0
0
0
0
0
0
-3.6282373180510366
0
0
0
0
0
0
0
0
0
0
0
0
0
0
0
0
0
0
0
0
-5.977668372329759
0
0
0
-7.3855261002919494
0
0
-4.47235455974442
-6.011095471152612
0
0
0
0
0
0
0
0
0
0
0
0
-6.851855815419145
0
0
-8.10200319551909
-3.5416974497705604
-7.8901913590202515
0
0
-17.682029624167388
3.435662592794318
-1.951384163848313
0
0
0
0
0
-3.4116384289566555
0
0
-16.503866831427324
0
0
0
0
-10.80843288668838
0
0
0
0
0
-5.847251774827105
0
0
-2.3809557024372623
0
0
0
-4.741327678272819
-5.627299581748384
-8.156564651547816
0
0
0
0
0
0
0
0
0
0
0
0
-9.947274057476994
-3.971155504915452
0
-16.229006396361356
0
0
-9.375126988902343
-14.315258882538124
0
-3.602723104841286
0
0
0
0
0
0
0
0
0
0
0
0
0
0
0
-0.685024320432803
0
0
0
0
0
0
-3.460963584575754
0
0
0
0
-14.975243120026505
0
0
0
0
0
-11.427071122991387
0
0
0
0
0
1.2406512325619687
-12.337021809869697
0
0
0
0
0
0
0
-9.055799076137738
0
-2.131099836745906
0
-3.4522279722627753
0
0
0
-7.921821443986594
0
0
-7.990820332211583
0
0
0
0
0
0
-12.56401445361562
0
0
0
0
0
-7.35318119265391
0
0
-8.48833621553356
-0.8924336781402858
0
-1.0384631037828307
0
0
0
0
0
0
-9.567556131488374
0
0
0
-6.897178150895201
-6.548595585482858
0
0
-6.163472495018323
0
0
-4.243213381905662
0
0
0
0
0
0.0353093321416458
0
0
-11.952929354472332
-9.639186617852452
0
-9.940754759673748
0
0
0
0
-3.1479669550715363
0
0
0
0
-8.896924771633492
0
0
-10.963420898842099
-5.887797102687888
0
0
0
0
0
-11.767761773202558
0
0
0
0
0
0
0
0
0
0
-7.319836185448169
0
0
0
-0.46137536791027467
0
0
0
0
0
-5.866729546415694
0
0
-10.490807665892234
0
0
0
0
0
-15.182168250750438
0
0
0
-3.757061266725974
0
0
0
0
0
0
0
0
-14.016882690545856
-10.676237550165455
0
0
-11.748265300632383
0
0
0
0
0
0.16484604186606067
0
0
-12.550558576237497
-4.588557913791488
0
-8.579900164366231
0
0
0
0
0
0
0
0
0
0
0
0
0
-17.416160955304786
0
-4.4737684414551335
0
0
0
0
0
0
0
0
-2.2902585170026812
0
0
0
0
0
0
0
-13.474748884334003
-12.676324298344852
-0.8302160079191523
-0.7690328350146884
0
0
0
2.0734054695967723
0
0
0
0
-8.527569104941977
0
0
0
-11.469524317833478
0
0
0
-4.186023404379153
0
0
0
0
-15.83139114705082
0
-8.56553188422424
-4.995246964786838
-9.231641453534058
0
0
0
0
0
0
-1.9049177305444795
0
0
-6.056106942501241
-11.996863700991808
0
0
-13.300643978404558
0
0
0
0
-15.429364610874988
0
-8.78297769808192
0
0
0
0
0
0
0
0
0
-12.454287279209327
0
0
-4.037086394061497
0
-0.992631765888748
0
0
0
0
0
0
0
0
0
0
0
0
0
0
-5.754127134382899
0
0
-9.9463076973872
0
-9.158249866590051
-15.87975107078888
-4.8504858942021
0
0
0
0
0
0
0
-10.564731197084829
0
0
0
0
-5.8645283036507
0
0
0
-8.427351960955294
-7.3509466357959
0
-15.818830081909296
0
0
0
-4.943497386984295
-12.730196218622295
-0.441677985528553
0
0
0
0
0
0
0
0
-1.1889847864760186
-5.167930103001721
0
0
0
0
0
0
0
0
-11.23676030195193
-7.864479815287876
-5.655896490237658
0
-12.663957123774912
0
-7.121498070341421
2.218510825978519
0
0
0
-5.677302758369657
0
-4.794401196762644
-14.057843620924206
0
0
0
0
0
-6.472668953445225
-10.669055827555448
0
0
-9.647200552441273
4.3401802185469185
0
-4.039313599094551
0
0
0
0
0
0
0
-10.50528085134821
0
-8.49727653826233
-12.394719427561112
-10.686878858830404
0
0
-5.557706641385806
0
0
0
0
0
0
0
0
0
0
0
0
0
0
0
0
-7.292123928150813
-7.5160316981992645
0
-1.3188668966155952
-9.395345178229961
-2.147978346295961
0
0
0
0
0
0
-13.616906045982034
0
0
0
0
0
0
-14.352895455404049
0
0
0
-5.730962486262563
0
-18.95515178904039
-11.622233513622183
0
0
-14.197310731181767
0
0
0
0
0
0
0
0
0
0
-7.025473084094175
0
0
0
-5.594751265607377
0
0
2.5460387365903734
0
0
0
-0.2271886868744235
-14.67550383702184
0
0
0
0
0
0
-0.4492612878869992
0
0
0
0
0
0
0
0
-5.468295649768906
-10.662827068905683
0
0
0
0
0
0
-5.861969639601024
0
-1.579789579832707
0
0
0
0
0
0
-9.942252550656036
-5.649485993842218
0
0
-6.134202083858498
0
-4.551368197851149
0
0
-4.314287564763761
0
0
-4.357219163183523
-4.70071129067057
0
0
0
0
0
0
0
0
-3.8970740512399025
-14.228939602239016
-9.234366608713627
0
0
0
0
0
0
0
0
-0.17596920820111212
0
0
0
0
-9.84959790403257
0
0
-8.277671608308983
0
0
0
0
0
0
-16.721707438091894
0
0
0
-6.211562329400726
0
0
0
0
-7.078452444019376
-10.706250377101378
0
0
0
0
-10.163936380960838
0
-14.111559756139624
0
-8.91492370584057
0
0
0
0
0
0
0
-11.649505960247811
0
0
0
0
-7.219859820299467
0
0
0
0
0
0
0
0
0
0
0
0
0
0
0
0
0
-14.445091194374577
0
0
-9.763306325474963
0
0
0
0
-3.5785772095187682
0
0
0
0
0
0
0
0
0
0
0
0
-7.319149735509655
0
0
-8.461272438177053
0
-5.493670267073968
0
0
0
0
0
0
0
-8.06995106961468
0
0
0
0
0
0
0
-15.447089815442142
0
0
0
0
0
0
0
0
0
0
0
0
0
-10.040736899832973
0
0
0
0
-7.162764704987863
0
0
0
0
0
0
0
-4.677892010512874
0
0
0
0
0
0
0
0
0
0
0
-2.3076394955126216
0
-12.889744163565666
0
-4.0556712478595305
0
0
0
0
-13.858830306311207
-2.156625482268595
0
0
0
-3.486620131547654
-18.0629051051273
-8.02256816080271
0
-5.538220191957423
-8.942786350816526
-14.033597681245194
0
0
0
0
-7.496045311733525
0
0
0
0
0
0
-10.5209122270448
0
0
0
-6.375421885287608
0
0
0
-7.835395051783491
0
0
0
0
-8.193069165435222
0
0
0
0
-13.603987375571087
0
1.9748227027793708
0
0
0
0
0
-2.184895821448179
0
0
-16.218912820047574
-3.3530899121515576
0
0
0
0
0
-11.04463913567937
0
0
-6.854886791399114
0
0
-15.984790652073027
0
0
0
0
0
-16.544596477415773
0
-3.806561352281302
0
-5.061378679132021
0
0
0
0
0
0
0
0
0
0
-11.530826962490117
0
0
0
0
0
0
0
0
0
0
0
0
0
0
0
0
0
0
0
0
0
0
0
-2.0448185551427547
0
0
0
0
0
0
0
0
0
-6.081205393801919
0
0
0
-13.344894966232964
0
0
0
0
-12.611562492582731
0
0
0
0
0
0
0
0
-6.290810732252777
0
-0.17757549485816526
0
0
0
0
0
0
0
0
0
0
0
0
0
0
0
0
0
-2.865346882040839
0
0
0
-12.262166303271819
0
0
-8.453397492090811
0
0
-0.5227831393115431
-8.859123491166725
0
0
0
-4.95513270737751
0
0
0
0
0
0
0
0
-1.949744080629669
-12.623607601260753
-5.213952801717759
0
-8.567260053225358
0
0
0
-13.730825197240732
0
-3.2017534260873624
0
-3.9623859838327595
0
-8.800460464225296
0
0
0
0
0
0
0
0
0
0
0
0
0
0
0
0
0
-13.16426308736297
0
0
0
-14.773717736066494
0
-4.682614550895126
0
0
0
0
0
0
0
0
0
0
-19.123636213716743
0
-7.921427570738981
0
0
0
-13.436396181394135
0
0
0
0
-8.052022701680347
0
0
0
0
0
-10.52286596958662
-6.908725280518529
0
0
-5.180064267989285
0
-3.1284955715514684
0
0
0
0
-12.271078774534894
-17.27378447189595
0
0
-4.121900182060914
-5.346344530826904
0
0
0
0
-6.940794238516626
0
0
0
0
0
0
0
0
0
0
0
0
0
0
-11.014974241265513
0
0
0
0
-3.2001252453035556
0
0
0
0
0
0
-7.952682531162192
0
0
-0.749645858104163
-11.253922952606036
0
0
0
2.0882738745138485
0
0
0
0
0
0
0
0
-2.9831818267238464
-16.610198153037448
0
0
-9.368444586934292
0
0
0
0
0
0.38510490272535275
0
0
0
-14.312647206529865
0
0
-11.471578267426958
0
0
0
-6.50733971127754
0
0
0
0
1.6503226913369016
0
0
0
0
0
-7.0182358053715665
0
-8.088468890286244
0
0
-10.756314304404974
0
0
0
0
0
0
0
-1.1569756392077466
0
0
0
-6.872978312194114
0
-8.222074166699668
0
0
0
-5.093312244157574
0
0
0
0
0
0
0
0
0
0
0
-1.1959956339971527
0
0
-4.731688031332212
0
0
0
0
0
0
-8.268405127980499
-4.236928939883924
0
-5.779743160824297
0
-6.340207871043429
0
0
0
-9.572740076691208
0
-13.046135207619917
0
-14.499723031049083
0
0
0
0
0
0
0
0
0
0
0
0
0
0
0
0
-3.2982994274998356
0
1.576659684427845
0
-10.08272780345796
0
0
0
-2.7620118418282553
0
0
0
-8.202872513152201
0
0
0
0
0
0
0
0
-10.675623989440716
0
-1.4948642234169176
0
0
0
0
0
0
0
0
-7.474430601592956
0
0
0
0
-9.174796236753156
0
0
0
0
0
-6.729012243409377
-4.67808107806278
-5.73315564487486
0
0
0
0
0
-14.02929454431422
0
0
0
0
-8.501396493761478
0
-13.990271592137711
-9.020649736021625
0
-6.333275227426833
-3.7784968837959996
-12.993670204398049
0
0
0
0
-9.296585432829522
-13.097199089121927
0
0
0
0
-12.524537397493033
1.637427033186334
0
-7.977432305006301
0
-3.7125016659753722
0
0
0
0
0
0
0
0
0
0
0
0
0
0
0
-8.108591057106446
0
0
0
0
0
0
0
0
-10.265669726210888
0
0
0
-6.866930574208645
0
0
0
0
0
0
0
0
0
0
0
0
0
0
0
-2.6642871211572587
-4.28126604347946
0
0
0
0
0
0
0
-1.2392057762500728
-9.106197410300593
-0.027522257257020594
0
0
0
0
0
-9.166065760110596
0
-4.312050939319914
0
0
0
-13.264235315168431
0
0
0
0
-6.823689806127848
0
-0.017942659424851248
-2.2312737541527117
0
0
0
-0.662779077326098
-8.123798550377371
0
-6.3190835157016645
-10.35233928780269
0
0
0
-8.044853014472585
-7.585729191215666
0
0
0
0
-4.770016036438913
-10.336857108941144
-12.886292104925927
0
0
0
0
-15.009658920320065
0
0
0
0
0
0
0
-0.1619924192208587
-11.02887980421012
0
0
0
1.461034235935884
-13.844674694903807
-7.292231141381
0
0
0
0
0
0
0
0
0
-10.756658360807272
-8.162385471643935
0
0
0
-10.263213055332615
-0.18410139794076466
0
0
-10.005316902053668
0
0
0
0
0
0
0
-12.647368829159909
0
0
0
-8.05136455911634
0
-6.09592342483987
0
-0.5735706084957043
0
0
0
0
0
0
0
0
0
0
0
0
-7.990522881107195
-0.3513248382013391
0
0
0
-14.179033198435143
0
0
0
0
0
0
-12.042399015497692
0
0
-7.239735229243578
0
0
-3.965948352020414
0
-5.067897361840665
0
-5.850128305883424
0
0
0
0
0
0
0
0
-6.208709752821483
0
0
-14.039597105076751
-9.55866015915549
0
0
0
0
0
0
0
-5.882292001693066
0
0
-5.9771291802495625
0
2.846167151387586
0
0
0
0
0
0
0
0
0
0
0
0
0
0
-11.07334727459403
-11.535475630573528
0
0
0
0
0
0
0
0
0
-11.752652280167483
0
0
0
0
0
0
0
0
0
0
0
0
0
0
0
0
0
0
0
-11.302652954178159
0
-8.487261054624856
0
0
0
0
0
-3.0563485808241038
0
0
0
0
0
0
0
-12.090543238529282
0
0
0
0
0
-5.116370530881252
0
0
0
-6.91991716583447
0
0
0
0
4.130297479168909
0
0
0
0
0
-11.271378802371986
0
0
0
0
-12.499791845893748
0
0
0
0
0
0
-10.500168759951498
1.0834716207827546
0
0
0
0
0
0
-4.478835447668872
-9.212059556477897
0
-7.546916677714049
-7.850652827545151
0
0
0
0
0
0
0
-7.196329785847706
0
-12.036516305036915
-12.163232462433559
0
0
0
0
0
0
0
-4.63249353282981
0
0
0
0
-3.203197457056506
0
-10.889981315382595
0
-0.8859647873843333
0
0
0
0
0
0
0
0
0
0
0
-6.522635531580245
0
0
0
0
0
0
-18.824514095932667
-4.046758697864921
0
-14.267006953998067
0
0
0
-2.139300541798311
0
0
0
0
-11.627135088236653
0
0
0
0
-13.969582216613102
0
-15.101992895110254
0
0
0
-14.685855476029374
0
0.6017450313839752
0
0
0
0
0
-6.5206387040907146
-13.258365962240003
0
0
0
0
0
0
0
0
0
0
-8.951673930296415
0
0
0
0
0
-3.9972061245482124
0
0
0
0
-1.5814030829717411
0
0
0
0
0
-13.134144212236535
0
0
0
0
-5.353573861444377
0
-4.603533018884722
0
0
0
0
0
-6.998349441087956
-12.315333403476348
0
0
0
0
-7.072811769200609
0
0
-7.2976603848486326
-13.08198305991952
-7.249564946387185
0
0
0
0
0
-4.675154715237622
0
0
0
0
0
-8.138806131415993
0
0
0
0
0
0
0
-11.02786264327281
0
0
0
0
0
0
0
0
0
0
-10.462915364692813
0
0
0
0
0
0
0
0
0
0
-6.082428406678285
0
0
0
0
-8.398642139264988
0
0
-4.686930296419984
0
0
0
0
0
0
0
0
-12.75123772729263
0
0
0
1.0692199097788695
-7.76291191075741
-6.769795960768799
0
0
0
0
0
0
-11.964669667866957
-10.893134480360427
-15.20287062576376
0
0
0
0
-15.987483711618562
-9.66553520814692
0
0
0
0
0
-10.561740288301387
0
0
-12.438801124431743
-7.4177895782915
-3.0319023746129545
0
0
0
0
-5.131024199487526
0
-2.2546529702543854
0
0
0
0
0
0
0
0
0
0
-10.093175970822662
0
0
0
0
0
0
0
-4.763183465981202
0
0
0
0
0
0
0
0
0
0
-2.221211755543189
0
-3.438644895849326
0
0
0
-3.125086765043552
0
0
-13.358850670213611
0
0
0
0
0
-10.652406914622953
0
-4.106929489287902
-4.987943435333049
0
-2.874883529842842
0
-14.332981189547004
0
0
0
0
0
0
0
0
0
0
0
0
0
0
0
0
-8.768589512710562
0
0
-19.683633573363178
0
0
-1.4666660154126392
0
0
0
-1.3749425623089442
0
0
0
-4.900560813506891
0
0
0
0
0
0
0
0
0
0
0
-6.098164348240566
0
-6.604645215561744
-3.2291320612763617
0
0
-10.419759958484995
-32.41557029077083
0
0
-1.4270905308680253
-10.548451330025522
0
0
0
0
0
0
0.052387415697656745
0
0
0
0
0
-6.5980197593463785
0
0
-7.559388644095196
-6.407784354276574
0
0
0
0
0
0
-7.974301960741116
-1.9955860420753324
0
0
0
0
0
-3.575037494095902
0
0
0
0
0
0
0
-10.918279789720629
0
0
0
0
-2.507478380436183
0
0
0
0
0
0
0
0
0
0
0
0
-1.3947381986471927
0
0
-1.992186024672147
-7.420557692302207
0
0
-8.583639405625298
0
0
-12.210001888896747
0
0
-6.852876739426945
0
0
0
0
-1.45310317967318
0
0
0
0
0
0
0
0
0
0
0
0
-3.8636558323206316
0
0
0
0
-4.550295738131881
-8.159600744397094
-10.917589381353286
0
0
0
-13.018541181940991
0
0
-14.420841508621042
0
-0.17284156539551432
0
0
0
0
-0.0854885095729403
0
0
0
0
0
0
-5.86840513875545
0
0
0
0
-9.605868199778982
-0.1270518795713233
-6.096168552705222
0
-5.2546665238097425
0
-14.932492768978408
0
-6.122926814373647
0
0
0
0
0
0
0
0
-0.7412735890596147
-4.809231372658203
0
0
0
0
-8.694986969694616
-10.780433148698776
0
0
0
0
-3.8065996419777552
0
0
0
0
-11.153261668733203
-2.7059490196854963
0
-7.769472613520099
0
0
0
0
-10.500328075726465
0
0
0
0
-15.379452463712852
0
-11.525061967731878
0
0
0
0
0
-6.3436857904683785
0
0
0
0
0
0
0
-2.8460622784602885
0
0
0
0
0
-4.25416617295653
-0.23442427371878855
-8.33515020322255
0
0
0
0
-3.3647209951375614
0
0
0
-0.9025218013394642
0
0
0
0
0
0
-10.916946619010545
0
-3.5225923128633636
0
-9.931439211832453
0
0
0
0
0
0
-0.7263066280566517
0
0
0
0
-10.953425571250728
-15.042357995593413
-19.038411453386527
0
-0.35574064621311674
0
0
0
0
-18.706179428850547
0
0
-15.090690407133726
0
-4.903267458218134
0
0
0
0
0
0
0
-6.582755563925549
0
0
0
-4.554263353372481
0
-10.24571625032743
0
-4.10477199614013
0
-3.708176617639615
0
0
-10.041072748059879
0
0
0
0
0
0
0
0
0
-1.3886116581550272
0
0
0
0
0
0
-10.574483031905968
0
0
0
0
0
0
0
0
0
2.764292643031148
0
0
0
0
0
-11.690776220150969
0
-11.00720694700291
0
0
-1.1438130954046695
-0.4882324411403686
0
0
-13.560599602354266
0
0
-12.164456407220225
0
0
0
0
0
0
0
0
0
0
-5.548654375978803
0
0
0
0
0
0
0
0
0
-6.742775438220762
1.8507129943298812
0
0
0
0
0
-4.250341335952734
0
-11.030174404671692
0
0
0
0
-9.205759026863497
-19.510354480218624
2.80913750927885
0
0
0
0
0
0
0
0
0
-6.662038490048023
0
0
0
0
0
-12.740876281491008
0
0
0
0
0
0
0
0
-10.656332112049904
-16.06769816237258
0
-6.31632823612856
0
0
-6.233578126935744
-13.65999504823239
0
0
0
-7.453067584337381
0
0
-2.512121901734477
-5.087451102317995
-3.526010211284581
-12.332451913283041
-7.858367827981756
0
0
0
0
0
0
0
0
0
0
0
0
0
0
0
0
-16.887065948171127
0
-16.448378474938792
0
0
-15.319318238320307
0
0
0
0
0
0
0
0
0
0
0
0
0
0
0
0
-11.141307956242612
0
-6.203260101472038
0
0
-2.733484097027819
-13.956348983027464
0
0
0
0
0
-11.274058754000542
-17.787354955450002
0
0
0
0
0
0
0
0
0
-7.926634069932599
0
0
0
0
0
-8.349677755854652
0
0
0
-7.0827940225652455
-3.621750696645156
0
0
-13.616017831356764
0
0
0
0
-0.9657521275237531
0
0
0
0
0
0
-2.119076260270603
0
0
0
0
0
0
-6.605975412540917
0
0
-3.3214958552504075
0
0
0
-12.897695707467149
0
0
0
0
0
0
0
0
0
0
-16.58935093333947
0
0
0
0
0
-6.692741493039497
-12.537223783329102
-5.044969690480925
0
0
-5.57577935878843
0
0
0
0
-2.6453686952296263
0
-0.42066093002097843
0
0
0
0
-9.220923969371634
0
0
0
0
0
0
0
0.7771733810595467
-5.716735633309493
0
0
0
0
-16.344199690029527
0
0
0
0
0
0
-0.0318146493649983
-10.64238225684092
0
0
0
0
0
0
0
0
0
0
-7.559424559398611
0
0
-8.490467271036788
0
0
0
-14.631106562562366
0
-10.067004481925597
0
0
0
0
0
0
-6.450007811196212
0
-2.2030099564991747
0
0
0
0
0
0
0
-15.876705065072894
0
0
0
0
0
0
0
0
0
0
0
-11.816168330725942
0
0
0
0
0
0
0
0
0
0
0
0
-11.873557066105107
-14.819544161543172
0
0
0
0
0
0
-11.266380516549146
0
-15.062903273403283
0
0
-13.783210350624964
0
0
0
-14.438581896052932
0
-11.782879045000863
0
0
0.26359253635940505
0
0
0
0
-12.235421502777204
0
0
0
-9.479967623626196
0
0
0
0
0
0
0
0
0
0
0
0
0
0
0
-18.033176651039017
0
0
0
-3.001064450473646
0
0
0
0
-8.652052006943988
0
-10.087681490456534
0
-11.052805319462278
0
0
0
0
0
0
0
0
0
0
0
0
0
-1.0673939250225097
0
0
0
0
0
0
0
0
0
-4.86665580898244
0
0
-12.239449040580999
0
0
0
0
0
0
0
0
0
0
-1.234273096062961
-5.166090876991552
0
0
0
0
0
0
0
0
0
0
0
0
0
0
-10.281075937841214
-7.247589569686071
-5.5680933335097205
0
0
0
0
0
0
-2.3103348175324836
0
0
0
0
0
0
0
-4.782941187607822
-12.484869232218266
0
0
0
-5.977085545548734
0
-10.247551497427821
0
0
-14.607574220718577
0
0
0
0
0
-12.934299856033341
-10.169215385261445
0
0
0
0
0
0
0
0
0
-9.809719483787093
-7.735826657376434
0
0
0
0
-1.4875676215553926
0
0
0
0
0
-12.628399430417195
0
-9.721059342823661
0
0
0
0
0
0
0
0
0
1.8981986173947847
0
0
0
0
-1.457226268694222
0
-19.19103637568415
-8.760609568471486
0
0
0
-15.014194533798982
0
0
0
0
0
-14.741247529159399
0
0
0
0
-12.735536736730985
0
-12.189990830195569
-15.734242152403256
0
0
-12.167298437375841
0
0
0
-5.787358002590302
0
0
-13.52726350050332
-8.034036011057863
0
0
-10.925553834016158
0
0
0
0
0
-2.65898566483778
0
-5.295178598748888
-8.79136016405755
0
0
-5.1560234998027665
-3.285580679438593
0
0
0
0
0
0
0
1.7381414675262905
0
-10.474102296284853
0
-11.424736830496684
-1.3198420059522002
-10.535801547133532
0
0
0
0
0
-3.8905313298867306
0
-4.868520897677946
0
0
0
-9.681914123867996
0
-2.736332937132607
0
0
0
-6.711144278530905
0
-16.272571932971676
0
0
0
0
0
0
0
0
-10.609709947665973
0
-10.75647429263741
0
-0.8357545773957662
0
0
0
0
0
0
0
0
0
0
0
0
-1.8357688190083128
0
-7.4626071763278
0
0
0
-13.581330164650643
-1.0606304926262131
-5.254043591965264
0
-3.741360873039827
0
0
0
0
0
0
0
0
-0.35261614585327206
0
0
0
0
0
0
0
0
0
-7.908340121071358
0
0
0
0
0
0
-13.466784123072307
0
0
0
-9.236572561990778
0
0
-11.146792171836742
-11.018914847160223
0
0
-11.577486045984905
-12.851364241225616
0
0
-0.620727282355505
0
0
-9.865633691840472
-7.688400601376749
0
0
-11.316053661088421
0
0
0
0
-6.005990665801877
0
-4.6073511650701375
0
0
-12.691796623088905
0
-3.733234955927672
0
0
0
0
-13.186876912972773
-0.12170405801236824
0
0
-10.717090148182862
0
0
0
-9.91625925392701
0
-12.19402703406274
0
-6.348351355274569
0
-7.246586443361223
0
0
0
-5.008091613662327
0
-4.676120122747296
0
-6.311011822498928
0
0
0
0
0
0
0
0
0
0
0
0
0
0
0
0
0
0
-10.398563706685287
0
0
-7.966575172059057
0
0
0
0
0
0
0
0
0
0
0
0
0
0
0
0
0
0
0
0
0
-2.725042225490885
0
-7.042478895985633
0
0
0
-5.333537733134579
0
0
-2.566959818594972
0
0
-1.7879345180902497
0
0
0
0
0
0
0
0
0
0
0
0
-8.132623674950407
-5.575926522235727
0
0
0
0
0
0
-14.427398572076566
-8.334767358338734
0
0
1.6930700701591368
0
0
0
-5.9775548876601245
0
0
0
0
0
0
0
-14.564479393961173
0
-14.621758343374294
-2.965837836167465
-6.131097811230624
0
-6.214474164206487
0
-7.383513292491429
0
0
-5.314622840193738
0
0
0
0
0
-0.45340724561783496
0
-4.7531332906852874
0
0
0
0
0
0
0
0
-1.5370724094079826
0
-9.987239566223487
-6.140853971382143
0
0
0
0
0
0
0
0
0
0
0
0
0
0
-6.245513444812182
0
0
0
0
0
0
0
-11.97953688739716
0
0
-9.115745203335653
0
0
-7.277059005310185
-12.988945462972525
0
0
0
2.1607070748344617
0
0
0
0
0
0
0
0
0
0
0
0
0
0
0
0
0
0
-5.650627869824317
-6.65308682004894
-13.77633389155882
-2.221563392814501
1.8088049907360138
0
0
0
0
0
-14.930275484576107
0
0
0
0
0
0
0
-11.346492151969413
0
-5.434926349663253
0
0
-4.8520797973660015
0
0
0
-0.4812676991215067
0
0
0
-8.823730387530318
0
-15.022313752407426
0
0
0
0
0
-0.9520962788264195
0
0
0
0
0
0
-5.917027560681284
-4.037893267392441
0
-14.851443100976866
-4.4895155486473595
0
0
-13.790546497445863
0
0
0
0
0
0
0
0
0
0
0
0
-10.790827337278413
0
0
0
0
0
0
0
0
0
0
0
-2.9944387723027437
0
0
0
-4.573783775100455
-13.703674872801017
0
0
0
0
0
0
0
0
0
-3.7905540356508816
-3.0638001409028655
0
-9.358179925818172
0
-4.316000120745773
0
0
-7.19628868528476
0
0
0
0
-12.841202518494203
0
0
0
0
0
-2.049170632606767
0
-5.905960595455462
0
0
0
0
0
0
0
0
0
0
0
0
-7.640967150237728
0
0
0
0
-5.356284096266001
-12.751453928756385
0
0
0
0
0
0
0
0
0
0
0
-14.859907852037088
-5.619326854514214
0
0
0
0
-4.895018739569708
-5.247357463256664
0
0
0
0
0
0
0
0
-14.231542026452914
0
0
-2.451380713459793
0
0
0
0
0
0
0
0
0
-13.897818996687526
0
0
0
0
0
-15.062961329711923
0
0
0
-13.794626651064153
0
0
0
0
0
0
-6.258375382175107
0
0
0
-5.439889931556499
0
0
0
-2.054531730129425
-7.286174798587021
0
0
0
0
-2.54599248956195
0
-11.820289015974767
-2.5595366643335926
0
0
0
0
-6.348534861437147
0
0
0
0
0
0
0
0
0
-7.147505591373666
0
-1.0733086727985166
0
0
-8.570763911138958
-14.608127499551399
0
-10.619037179172032
0
0
0
0
0
-14.467459784035485
0
0
-11.64264382347483
0
0
0
0
-5.213767635489397
0
0
0
0
0
0
0
0
0
0
-1.969512297391871
0
-2.3931746703414634
0
-3.7308346785607736
-0.11493546835940917
0
0
-11.797343136176744
0
0
0
-1.5665672141140006
0
0
0
0
0
0
0
0
-8.351540151066276
-0.8484953715438017
-3.639942460220403
0
0
0
0
0
0
0
0
-8.478435955949827
0
0
0
0
0
0
0
0
0
0
0
0.5175165840087254
-9.47219819494157
0
0
-4.931649234822705
0
0
-7.53138958870695
0
-2.652928184365877
-12.44255742400799
0
-7.329054895927071
0
0
-4.5568153509935625
-14.122699551337526
0
0
0
0
0
-4.243751059265548
0
0
0
0
0
0
0
-0.5410188515706259
-7.645181941330921
0
0
0
-9.829331785690483
-13.461281538390056
0
-5.61650985174176
0.48438603201402586
0
-4.786884913350423
0
0
0
0
0
0
0
0
0
0
0
0
0.20723632536211958
0
0
0
0
-6.107038552504945
0
0
-9.074642669676017
0
0
0
0
0
-0.39232517875093637
0
0
0
0
0
0
0
-7.440617786297375
0
0
0
-15.43686675066064
-11.020160715878577
0
0
0
0
0
-2.413665448390847
-1.7346902505336337
0
0
-2.270001902695092
-10.096670806959905
0
0
0
0
0
-8.055485777941147
0
0
0
0
0
0
0
0
0
0
-1.5823815771375853
0
-5.53130784862018
0
0
-2.6095262293699486
0
0
0
0
0
0
-9.402087907591104
-12.258364498751305
0
0
0
0
0
0
0
0
0.07752949294623869
0
-7.798519553420308
-11.363419792950255
0
0
0
-5.195838508662579
0
6.719658597832901
-12.449783232012146
0
-15.546885499630507
0
-8.126946579702533
0
0
0
0
0
0
0
0
0
-16.294578548705804
0
0
0
0
0
0
0
0
0
0
-5.648548151816015
0
0
0
0
0
0
-17.835344353719776
0
0
0
0
0
-10.691666121861836
0
-3.578941363519357
0
0
0
0
-12.759022861423828
0
0
0
0
0
0
0
0
0
-8.497733467469926
0
0
0
0
0
0
0
0
0
0
0
0
0
0
0
-9.380294606532566
-2.6949225764944598
0
0
0
0
0
0
0
0
0
-5.785120282763935
0
0
0
0
0
0
-9.125731583724157
0
0
0
-10.560338616286371
0
-6.089727632093737
0
0
0
0
0
-1.3326090856017838
-6.572413740901079
0
0
0
0
0.7305034542741068
0
0
0
0
3.338935912956391
0
0
0
0
0
0
0
-12.471219123780735
0
-0.03140529157131391
0
-12.64071786272765
0
0
0
0
0
0
0
0
0
-3.677010599937885
0
0
0
0
0
0
0
2.278073461382027
0
0
-10.122321375663907
0
0
0
0
0
0
0
-12.928395610588469
0
0
0
0
0
-13.05454848540545
0
0
-9.45888676266151
-17.51224813066493
0
0
0
0
-14.593737319767564
0
0
-6.03331891677358
0
0
-5.91357175884416
-3.234188550098562
0
0
-11.499114586904156
0
-12.43749204756522
0
0
0
0
0
0
0
0
0
0
-10.579256741928074
0
0
0
0
0
0
-6.324655834599992
0
0
0
0
-5.77092554380023
0
0
0
0
0
-13.537130113294518
-14.663058801426962
0
0
0
0
0
0
-4.818904410562642
0
0
-8.25525740435082
0
2.0859332500751195
0
-5.871943241705277
0
-7.265097613169864
0
0
0
-3.1846735604629255
-12.028318766469974
0
0
0
0
0
0
-0.040856948950950295
0
-4.495539533317864
0
-6.361677561496176
-8.486184007598526
0
0
0
-5.944539653433876
0
0
0
0
0
-2.66407280573727
0
0
0
0
0
0
0
0
-10.67482126362611
0
0
0
0
0
0
0
0
0
0
-6.766826608937134
0
0
-9.674978686050109
-3.8109892555325167
-12.01220218072148
0
0
0
0
0
-13.032790001497917
-1.5760881288135862
0
0
0
0
0
0
-17.53227703477297
-11.286947688286363
-9.288518059423486
0
0
0
0
0
0
0
0
0
0
0
-2.668465650939275
0
-5.198542453560023
0
0
-10.999318656013292
-3.8080405068357255
0
0
0
0
0
0
0
0
0
0
0
0
0
0
0
0
-5.029430052206002
-12.929958892459055
0
0
0
0
0
0
0
0
0
0
-10.599773346420774
0
0
0
0
0
0
-7.03655751295015
0
0
-13.725578454258512
-1.7136527284419574
-2.7390995679849306
0
-5.2021494583975585
0
0
-9.808234902426697
0
0
0
6.05147638917049
0
-14.91284565527955
0
0
0
0
0
0
-6.895034421985432
0
-0.39697441503047065
0
0
0
-6.611996612946714
-0.9600576289724747
0
0
0
0
0
0
0
0
0
0
0
0
0
0
-12.4312950311119
0
0
0
0
0
0
0
0
-11.107973716293959
0
0
-13.472645743209833
0
-9.924066722653262
-0.7600089222287677
0
0
0
0
0
0
0
0
0
0
0
0
-10.396817678198046
0
0
0
0
0
0
-10.405996670396844
0
0
0
0
0
-0.018197696158118233
-4.392096472899522
0
-6.670634348005488
0
0
0
0
-10.025932811269398
-9.381121858476972
0
0
0
-10.026942610596446
0
0
0
-2.4566762302612544
0
0
0
0
0
-3.678687341906254
0
0
0
0
0
0
-9.076917048430026
0
0
-0.19366151758152006
0.9909631033033429
0
0
0
-0.8510477922237994
0
0
0
0
0
0
0
-10.81923013070681
-15.544123200471912
-3.465902997213688
0
-4.111058588174156
-11.835884255882434
0
0
0
0
0
-1.900638659259736
0
0
0
0
0
0
0
0
-3.1494528832038906
0
0
0
-0.2858600644851623
0
0
0
-8.445961381461656
0
0
0
0
-8.384209933991412
-10.785707177248076
0
0
0
0
0
0
0
0
0
0
0
0
0
0
0
-15.08958427153082
0
-14.446212581110544
-10.332075290525433
0
